solver_type L2R_L2LOSS_SVC_DUAL
nr_class 6
label 1 2 3 4 5 6
nr_feature 616
bias -1
w
-0.05512195269255214 -0.0144496918018749 0.03484564601033933 -0.01818819691221892 -0.02345178360542976 0.0146891463042661 
-0.01723308831837362 0.02564471759033795 0.009955911142102021 0.004227282594274014 -0.00756227123897312 -0.01158391097584137 
-0.04772564627906078 -0.001534732859855932 0.04984549560607286 -0.04217154823456278 -0.006746701472537206 -0.0167167144243101 
-0.02010086017770065 0.0002248283049657471 0.03244354299677625 -0.02737887064239865 -0.02566255628157959 -0.004284881985888324 
-0.05580437977996772 0.04256305819822864 0.04262721179193157 -0.02189594275523813 0.003065296960532588 -0.04756081521518517 
-0.03195575460220009 0.03592483125708087 0.009683728019932884 -0.00590713922789219 -0.01600548915437954 0.008873546046122423 
-0.03760034699930068 -0.01692875666866725 0.0231847394525834 -0.02120712432674289 0.01058241952646688 0.009724481544988265 
-0.0233548926360239 -0.01344423132627113 0.02173472334892373 0.003333489833460314 -0.01365575762293891 -0.006138304681810871 
0 0 0 0 0 0 
0 0 0 0 0 0 
0 0 0 0 0 0 
-0.08724644119315673 0.02350076315172511 0.01328115490978403 -0.00303616505866319 -0.01971893362929437 0.04232331101994945 
-0.03031478639743179 0.04452186539128432 -0.01989547539316826 0.01942484172300643 -0.0005292069248999016 -0.009511947401263876 
-0.004488907335321997 -0.0004802107215719185 -0.00714169737369922 0.03795805286898018 -0.01903499346673827 0.01055410933497149 
-0.06089034960996421 -0.002075858120738819 0.04728861558569 -0.03526778856196401 -0.04292767767798743 -0.004485824118062467 
-0.02890524565273277 -0.01977671170106537 0.003411380939508079 -0.000782502956705463 0.009926846549203247 -0.008235855398219423 
-0.03700326025414501 0.03768856232103263 -0.01031577834519812 0.02223850074761257 -0.01600034043765753 0.02843770181044068 
-0.01750675227527654 0.01683265792734745 -0.00632464198332444 0.05484046387878284 -0.02076555812236065 0.008889849913043816 
-0.05928048597695608 -0.01726926232151215 0.05217018028516682 -0.02937134483545126 -0.02424476972094018 -0.009963752191830495 
-0.001049927457880982 0.0003151030368800013 0.001362474142515177 -0.0008173894694470761 -0.001431965685676401 -0.001689299328123308 
-0.0009322326855481608 0.0003800456959648414 0.0009785201570015607 -0.0003341656681349205 -0.001410498752295704 -0.001689042209646178 
-0.0008736743835115509 0.0004469328504424639 0.0009613119128801919 -0.0003214524748834976 -0.001424355656894053 -0.001765733645037306 
-0.04525789552883878 0.05017097610776521 -0.01783905393617232 -0.007111092189842814 0.02092016102186349 0.01626893155476681 
0.03336374116214774 -0.004502114660640122 -0.02200687420588643 -0.009418932905653482 -0.03309419383495187 0.01179987006562025 
-0.01804172819780072 -0.00365826739917881 -0.008513317401586108 0.02530616374124076 0.01959339248927123 -0.01564777702762947 
-0.07795155229113324 0.02261643868351574 0.02654590275596128 0.001775235836158963 -0.04152732497304008 0.02760085437152556 
-0.03744377546385616 -0.0005405861360914692 -0.03428802688835985 0.04106844081974061 -0.03963572385119322 0.009636892239948147 
0.004555319923461759 -0.03472306052647555 -0.03455341598906607 0.02862544926472833 -0.03031442645584485 0.04912921512241136 
-0.03596866393975885 -0.005431207918708963 -0.02248538872294231 0.04845802788140487 0.002187373721942072 -0.0095088616613269 
-0.06160986342752452 0.002686030652247114 0.005428689786493596 0.004413387123511044 -0.01871017535341496 0.03160790372653366 
-0.003551042743064208 -0.003077958550819685 0.004975339364561454 -0.004234193893644094 -0.003905580582253476 -0.006464730551797082 
-0.003359840732411147 -0.002668794127213445 0.003660602265125262 -0.002615864858957366 -0.003886244046875301 -0.006485973227681291 
-0.003155855216447279 -0.002088626685252658 0.003576111568879956 -0.00263408034936592 -0.00378340675268883 -0.007188960949305071 
0.02322574912896715 0.00690342827745511 -0.02426935249656721 -0.04791150902369261 0.04121195185816051 0.02005358968282848 
-0.02448816016563911 -0.0007187660964875024 -0.03500070358891896 -0.02447464837570592 0.01390516388224013 0.03560323198932301 
-0.04594426756098175 -0.001150380347095067 0.004364246132987162 0.01668145310158864 0.06990933277689987 -0.08994277922738045 
-0.04233487800403962 -0.02578392549181826 -0.007705926784326449 0.02523520531630272 0.01286592718449339 0.0436923795055663 
0.00539533230213975 -0.01610249153222316 0.02773429525932001 0.0210891133492647 -0.06848699455413981 -0.00330994206459953 
-0.03094705792331406 -0.02619666943732996 -0.03271740672105771 -0.01277646244542134 0.04823095540609409 0.03739165243006511 
0.006141740775100698 0.05173719256865359 -0.001637395745420671 0.02659812723210313 -0.03059702501328493 -0.06696545668531582 
-0.04114108785910896 0.01719975465421575 0.002276196598248669 0.009686836484187137 -0.01430764747075037 0.009817093069312102 
-0.0111501259190099 -0.00923191844523532 0.009578804698995014 -0.006418622176559985 -0.008691422915405889 -0.01484876223181377 
-0.01159598477647454 -0.008147785666470175 0.007591465518081715 -0.003794972977803243 -0.008508349237990416 -0.01464014239279903 
-0.01127952275413995 -0.00621275217942254 0.007588674036540787 -0.003971122901454857 -0.007679853660765349 -0.01745607262408053 
0.0417781824388733 -0.005678379071490307 -0.03921043449549972 -0.02322970269877667 0.05204621286214271 -0.016193612651691 
-0.04417091439850495 0.02752598356914754 -0.02189185090454683 0.01155023304260143 0.002972407903423633 0.01349210847466459 
0.01936202002575151 0.03700670248200896 -0.01231508438780669 0.04243507076388048 0.0108039333877016 -0.1141224677740527 
-0.03385013648786703 -0.05026108326559073 -0.02519990252915941 0.01306703121710531 0.05394327283656147 0.0249405527922011 
-0.02627552127623883 -0.01985085878744803 0.008306232403381563 -0.00640967039049214 -0.05238761080446581 0.04075829558722538 
-0.01002173056160047 -0.005858779847113839 -0.01644690688191814 0.01144748946577932 0.02365913016254332 0.02564923443671191 
-0.01280076938225132 0.01023154256789805 -0.02241992007389072 0.04458654418567132 0.04462917925986882 -0.08326049199952912 
-0.03447571194646146 -0.000402814927373168 -0.04039566600695522 0.01484015165771458 0.01730472089099286 0.04441643262180504 
-0.01803581965110843 -0.0175462522565757 0.01689726574350574 -0.01099949757959097 -0.01409593540180025 -0.02808224132479175 
-0.01951295874263913 -0.01549968923866864 0.01417265861038466 -0.007581267626660899 -0.01357390199235792 -0.02770385196021848 
-0.01906805103954425 -0.01164144582953822 0.0142997966272555 -0.007880172044074658 -0.01155951991987406 -0.03394094989829039 
-0.02040786155696218 0.05321262152982292 -0.04759782065383167 0.01663998741381789 0.01934682622745619 -0.02706409253574267 
-0.07067983066745896 0.01532356613379583 -0.01213595518303188 0.01952961673604756 -0.01600213723971239 0.04775539978311646 
-0.01487748909373031 0.01892624699790815 -0.01947785057833515 0.03827997821030008 -0.004044404603677279 -0.0167956455890992 
0.03718423876448378 -0.06242108043101988 -0.02888499232740028 0.002385461785344115 0.01237517156067341 0.03972363292027828 
-0.02972329488637361 0.02699991276065082 -0.01555623860491197 0.03574812264404604 -0.04812536578435864 0.009761625523586602 
-0.05694143986290046 -0.009421169810408367 -0.01807843788613158 0.03842128935674438 -0.01575138841498433 0.0493322931659536 
-0.06606235063804636 -0.02372830756427213 0.01096083102150672 0.0281811481092021 0.04963849910479765 -0.04634856562738014 
0.03068789889741479 0.001702621503419445 -0.02787354854172468 -0.01074374251399892 -0.00577509610576838 0.02225630849692263 
-0.02175610854088289 -0.03092040194012999 0.02442644859563999 -0.01790092362950542 -0.01855956366926911 -0.0425905794976613 
-0.0244671872149613 -0.02777560743535338 0.02162485386774239 -0.01424155050450719 -0.01775858732012906 -0.04305418342899673 
-0.0240287645224297 -0.02166811337327445 0.02147259832985267 -0.01426271629956085 -0.01461773244051715 -0.05243464801828152 
-0.07037505365937763 -0.008061173531242867 -0.006851638988154631 0.0172570615516427 0.01509651022536834 0.08860211086414457 
-0.06613364152651904 0.014506883052886 0.003899941198354448 -0.005129056616831777 -0.002732534254478188 0.0281677907934294 
-0.004278539360198801 -0.01558795708595452 -0.01609101876166737 0.05043616152284917 -0.007725388038705391 -0.009783613899789359 
-0.03239237913120459 0.007943276775618308 -0.02376998101322332 0.02747385129389494 -0.009060823056626024 0.05135625620305097 
-0.02021833902271029 0.03502580339514681 -0.01957654162772499 -0.01148115896088705 -0.0002967821630224597 -0.01110230447523452 
-0.08173588873477136 0.01314942078961419 0.08100146564927256 -0.07404559261715242 -0.055184125305612 -0.02550748656685323 
-0.05654454744274547 0.001053758419091878 -0.001648990596579057 0.02487751104081551 0.01039768316875264 0.01596528647534053 
-0.009875482691215496 0.02307038817461515 -0.02844310412154296 -0.02040908887860596 -0.009863455503418198 0.02122750308971789 
-0.0207963485552014 -0.04850794117733934 0.03526576835429038 -0.03236751917386441 -0.02384913978709299 -0.05831193115658882 
-0.02538482540072407 -0.04420062777219696 0.03309101095004411 -0.02860503566347417 -0.02290936140572467 -0.05967452929888565 
-0.02480714696614263 -0.03543360563722139 0.03238334520375782 -0.02817882103481503 -0.01859007157634888 -0.07237726920175533 
-0.03346537866755764 -0.003083843014410121 0.01396314974251212 0.01667325241116697 0.01633461135405372 0.01052697397393509 
-0.03814065651633509 0.05077133145505889 -0.005780179294826895 -0.005788630727716565 0.006835227591971525 -0.01057907391261681 
-0.05613063019873558 0.06777071728821153 0.02704958954435453 -0.03945887380827784 -0.01029283448424055 -0.02252600911353845 
-0.01282691132607906 0.00230305302038499 0.0399598599354771 -0.01900603604598637 -0.0261450513740987 -0.01237968239443859 
0.02029262687426219 0.003787429999412137 0.01689925311698489 0.003721040759368159 -0.02134346418631349 0.004485131576527677 
-0.05157222497453599 0.04428711085343459 -0.001783349733241531 -0.01459477992862695 -0.02734784060509493 0.04134337444932792 
-0.05973459151302651 0.006559713651426817 0.01491834318575065 -0.01517097854946237 0.002000100095940832 0.04869664784414517 
-0.04713664752226867 -0.03408159322365263 0.04971214201872969 -0.02924819450803025 -0.00834865021686493 0.005872258642817929 
0 0 0 0 0 0 
0 0 0 0 0 0 
0 0 0 0 0 0 
-0.0146152393112645 -0.02716402119502705 0.005520893831719661 0.02073553088875968 -0.03451790090662666 0.05888936499918745 
-0.05367589849753823 0.05515683948257919 -0.03490824504708197 0.01716638043244567 0.02177750259617805 -0.01016877369115162 
0.08528553890469995 0.03343209900970711 -0.03343806130420499 -0.01438328066929541 -0.0581715400660557 -0.02383109790711206 
-0.06926436811611185 0.02648722860833189 0.07182290184957127 -0.06708301216313314 -0.07876530764275809 0.03041660976660972 
-0.01794861869549023 -0.0174654830391024 0.0008320765573884402 0.01959471368688087 -0.06653285786079811 0.1072377420719489 
-0.04208432457435862 0.02561940850744442 -0.02992065821642472 0.02692295878896794 -0.02941758868886979 0.06471916959006238 
-0.03838769027591188 0.07443322030789067 -0.02978602073419762 0.001865964480903063 0.009627454408994589 0.01223848631284856 
-0.09686323174866165 -0.03590745328918891 0.05584447847436861 -0.04020802601106371 -0.01791937034817188 0.004844356532561396 
-0.0003411976782394559 -6.530659443362773e-05 0.0006440975785360236 -0.000395869817710288 -4.313759045348881e-05 -7.074341702526008e-05 
-0.0002929332938151238 -5.785531528864023e-05 0.0004332250141720216 -0.0001458392693889894 -3.903800846016517e-05 -6.853176062524097e-05 
-0.0002976628942600864 -4.371374924315225e-05 0.0004112632414199641 -0.000108710795580842 -3.968481602485535e-05 -7.567642625322727e-05 
0.03434455137868403 -0.05967220628475931 -0.01741029379858807 0.01488117058421888 -0.03894767666191107 0.06225503026768899 
0.01464076128619312 -0.01678780823642016 -0.03875497996301703 -0.03774771319253652 0.06730328371220128 -0.05982243345153074 
0.03588130370630316 0.0144626360110901 -0.03637259036467178 -0.01132799177260391 0.06601854970247656 -0.06932569728723272 
-0.09224762577539301 -0.03097228815139148 0.04552715409422666 -0.007131426575583511 -0.07156368129995865 0.04763332357546844 
-0.04969665619172119 -0.03221008897774977 -0.01327360879163914 0.03239518560385873 -0.0129374680579594 0.04419528892012579 
0.01331608485492233 0.02552707548451845 -0.03762158390961998 -0.04175581636307278 -0.03116367552942611 0.02357909980507775 
-0.04874908783202743 0.02371483162477733 -0.02650241813001646 0.03297801643354223 0.001668063493752292 0.04602793856465805 
-0.03328988324729696 -0.05372235373158802 0.04961489768814202 0.007837899490757534 -0.05986110436695978 0.02621254356071269 
-0.003757935593124022 -0.0004288174186290791 0.003196693086950358 -0.0009126808820090778 -0.001342478599040617 -0.002274373728111364 
-0.003525185569279432 -0.0001995339006478439 0.002027328568529265 0.000352694182983476 -0.001281105758409456 -0.002159588638145989 
-0.003554784797399188 -1.542378544909687e-05 0.001977399145217229 0.0004363572380390315 -0.00125838519029832 -0.002301477205933252 
0.06170996643977505 -0.08063685592206146 -0.02800244654741665 0.01168437195053084 -0.02962482044291748 0.05123676883284432 
-0.02262117122016325 -0.02941667073943605 -0.04179825317809458 -0.05172203177384925 0.06092478622967002 0.03494545074208655 
0.02663010694286594 0.01177467085546099 -0.02623612303882408 -0.01385768416078719 0.00484845371374734 -0.02798009542532608 
-0.02543391700039468 -0.05784039771351753 0.03115372000840423 0.003145470919026037 0.01902251976122234 -0.001384835479945477 
-0.06334953439347883 -0.01889067790176477 -0.04511625655973199 0.02957302654192557 0.06935765810209317 -0.01366785159117926 
0.02341781665065274 0.02017100457418758 -0.04153112961475237 -0.03659047268872943 0.02646953908824165 0.006038312171918527 
-0.008982895596247461 0.004458523114735657 -0.02816419870944472 0.0008679682171860312 0.02465671526967821 -0.01272384325796077 
0.0144724079391822 -0.04956307727257033 -0.004150399665593977 0.02652087617625733 -0.03426770717895825 0.04526373916742793 
-0.01241971137690883 -0.001530019123843861 0.007039741026508332 4.548297072312562e-06 -0.006440650242888846 -0.007819606474550378 
-0.01240716220644054 -0.0008010126015363889 0.005038057022649769 0.002268678218025246 -0.00624616825316519 -0.007471173366749815 
-0.01254166742889938 0.0001274543206808981 0.005088784587699647 0.002265858517989024 -0.005810691776877965 -0.008603272147595141 
0.04208563036404393 -0.1015716253911428 -0.06520893146103476 0.04653732279655015 0.01640391653646728 0.04521250975160492 
0.01240801671054771 -0.0688873972506604 -0.03415380717249872 0.03982888097550258 0.01429513770767466 0.06608802231078452 
0.01430985308832484 0.006304425844075644 -0.01153806409552143 -0.001280403204768234 -0.0170213302196233 -0.03304809036622535 
-0.01416612190238643 -0.01925997741018647 -0.01483066661385848 -0.01670860758014258 0.05666087878785218 6.336810224170109e-05 
-0.02175703154949548 -0.04993586413729014 -0.03146637628782576 0.003987913679569343 0.09055782200726951 -0.06277857353935207 
-0.02041702167783785 -0.05494777848435895 -0.01165706667650664 -0.007625959072911697 0.009423784880984519 0.03209282322455934 
0.01453749817999347 -0.003978945535840585 0.002989023997062337 -0.0170318655773622 0.00737424635756538 -0.02214797000858266 
0.004116811164269321 -0.04867978321290491 -0.02911335880242993 -0.01156843496967856 -0.006209419464876927 0.07386565601810956 
-0.02034588156269223 -0.005099015628615795 0.01343856906814814 -0.00133936095191046 -0.01201912830334614 -0.01810980773657885 
-0.02087870843759698 -0.003634851910284365 0.01056910636977815 0.001723150497875934 -0.01153845637854053 -0.01761432277742733 
-0.02111414880778114 -0.001377805299268119 0.01076059055253265 0.001680996487971208 -0.01022392591052419 -0.02103551622487332 
0.005462374481639275 -0.05254922838733945 -0.05013628835745569 0.05547218429712358 -0.03834880109814781 0.05617773172828672 
-0.03140516190075079 -0.03245984117377351 0.02315048346071204 0.005818701118327168 -0.03050624809503121 0.02756782228145842 
-0.01764576496784954 0.004885093948575555 -0.03239556079990764 0.01461131038848207 0.03678362175168428 -0.02539651289458048 
-0.03041764617310046 0.0678945554655233 -0.04505871119516018 -0.03836127401489026 -0.01822604522076189 0.04414200568242899 
-0.0001637903953437735 -0.03602362972202504 -0.04267779381914771 0.04416138654047871 0.03442428406365493 -0.003730926731636796 
-0.05295949551961247 -0.05688712556641877 0.05877646355730611 -0.04622067089011674 -0.0726612852452478 -0.003139414443792799 
0.02320637714384189 0.01885869184805001 -0.02841862415277134 0.002598407857213805 0.02411132983714495 -0.01639805430197457 
-0.005139991586610516 -0.03440257611688464 -0.04809855170840863 -0.00537853730334785 0.06944346086018607 0.01953332384726561 
-0.02543967429563638 -0.01323732905067669 0.01970262596941367 -0.004424461001971764 -0.01713407376879517 -0.02978988534500535 
-0.02682419912486455 -0.0109243953979361 0.01663030185064866 -0.001095183270468163 -0.01641094935461169 -0.02999699016998343 
-0.02737217026320134 -0.006922480913835945 0.01655044825749009 -0.0007748311731283361 -0.01420989147141431 -0.03559439676608574 
-0.0204160774136965 -0.01131717325878219 -0.03125848690669571 0.07546276244104648 -0.03602692508247311 0.04034509749407198 
-0.1061119221865524 -0.04311812603672033 0.09043947838366005 -0.05198816058108469 -0.05120299896375922 0.03981542656038491 
-0.0167575369280089 0.03904701416905462 -0.03991077715052724 0.03048394632909074 -0.01318918752788663 0.01155199587995306 
0.03130614472315479 0.004983898685838341 -0.04711253832830932 0.01598034557918528 -0.03614645892805893 0.05387866232157842 
-0.02734805307355575 -0.03866389700583438 -0.04082492686941858 0.06227950079571808 0.0032626724917272 0.03037650291380045 
-0.1232454944236498 0.01826126956327147 0.08366062108694959 -0.08419683342146868 -0.0756587801901676 0.06476618715760965 
0.02381468072262444 0.0574123887031062 -0.00963190683828973 -0.01400924885819172 0.01256749011944111 -0.06805714254993001 
-0.07410903478084777 0.02130985179020137 -0.04840435393505053 0.001920711408470838 0.1120118771130565 -0.04512820667614355 
-0.0258762560904588 -0.0254708641188723 0.02871459656188196 -0.0139556797222011 -0.02324433063403728 -0.04285801386723898 
-0.02887416557069377 -0.02220878277454548 0.02616684489770517 -0.01051910915469528 -0.02239436044315331 -0.04370641589762945 
-0.02959479140241238 -0.01602132003989195 0.02564414855011267 -0.009782914532613431 -0.01924648320749084 -0.05183918420135621 
-0.02762081592927948 0.01068928388988691 0.02801698939252114 -0.0195963531883684 -0.02009560039369365 0.02855911205855039 
-0.007314461106593802 0.02377950254207739 -0.03071022707775434 0.03340807526188698 -0.001177321398431583 -0.02218693935277713 
-0.06296531188325946 0.07754723313426175 -0.01874382740237092 -0.03352332293097499 0.03428604557533897 -0.02540971948774265 
0.004033835065980455 0.01854851741954206 -0.005470017312457559 0.001338388730656908 0.002361059859809059 -0.02106446511637535 
-0.03393161307189144 0.02052811907369103 -0.01178008483957973 0.03206391787783536 0.003846613201474014 -0.007854158551013492 
-0.02326409488209061 0.02240626799691539 -0.03323749677327587 0.03609927998371856 -0.01627816011133635 0.007226246189582766 
0.001958587520132715 -0.01783001525466889 0.02596792519864718 -0.05805523880853696 0.006597907144724414 0.0074953226167847 
-0.05184564855228275 0.04581155254264905 0.002074812158684915 -0.01020484448179273 0.002136184854674961 0.02565025147113054 
0 0 0 0 0 0 
0 0 0 0 0 0 
0 0 0 0 0 0 
-0.01494060251181082 -0.08755039462481917 0.01596579993283453 0.01428320875343245 0.002723893995071442 0.06186623680452101 
0.05086274202828358 0.01790769456277485 -0.01897364920089925 -0.02798233383150636 -0.03405571113700236 0.0104620712409342 
0.1000374031022263 0.0119403625079305 -0.03258478809457147 -0.006321621352113671 -0.04164728136510767 -0.03905755122732051 
-0.03632115955857931 0.04758597955639349 0.009525293115641461 -0.02149272621495477 -0.04304550602111713 -0.02695614868198868 
-0.0697626059850991 -0.01479587949139305 -0.003619220223589264 0.04496341902843567 0.005018109883066162 0.03488501070424634 
-0.02660342497884742 0.009705477246339935 -0.03933731486361373 0.01159794703958834 -0.03696565072310308 0.05724818378235283 
0.03281247459935334 0.0742594784360277 -0.03030936115117824 -0.0076265201222017 0.01176421643617473 -0.07330649053858057 
-0.062702669800191 0.009725949870120373 0.01494662132410965 -0.0214116015434431 -0.03344727684740643 -0.01453085435183725 
-5.559461603610266e-05 -1.123592041756702e-05 0.0002016256482160063 -0.0002040142722059424 0 0 
-4.237126043544439e-05 -1.172820953665529e-05 0.0001523885255522229 -0.0001494487542962588 0 0 
-4.270016345459155e-05 -1.368262385566897e-05 0.0001465608268377064 -0.0001396338383062399 0 0 
0.07349241758662362 -0.07778222453414421 -0.007821662543633229 0.008657029711738576 0.0153507776729975 -0.03465427909182973 
0.005212678349487834 0.00155239188211334 -0.05998616972102849 0.03519000082831049 -0.04596521286259465 0.05307917209906782 
-0.07722852019720203 0.07187400056798367 -0.05242335991964992 -0.03001218615945897 0.083420734996823 -0.03515763792420635 
-0.01188390795322266 -0.07585593780109831 0.03637190699708596 -0.03426804456708153 -0.007347271017254967 -0.06061237565981924 
0.06208747393933438 -0.02404123020422476 -0.0210935130665806 0.02054870835322536 -0.03393917606702369 -0.02918920709777925 
-0.05342560059769295 0.02975019648614436 -0.04492189213754977 0.01058342432327136 -0.008307637567462582 0.05606075843069851 
-0.003104585052297269 0.02036479536088813 -0.04798283780952345 0.001814386267470844 0.06153592358813708 -0.05305513938528408 
0.00109363474357589 -0.09751832238717152 0.07352747995840261 -0.03485882523863691 -0.03589089288656782 -0.07103336629659829 
-0.001807257908606404 -0.0001552813704026294 0.001850908891210253 -0.001079634592685653 -0.0002025055440464641 -0.0004258819320902797 
-0.001660445519409872 -5.112153572399801e-05 0.001156429037290498 -0.0003344631325278415 -0.0001825979998653557 -0.0003860233753340487 
-0.001686901127101326 2.770973590265613e-05 0.001096529618591668 -0.0002407535660077576 -0.0001874778908954609 -0.0004181210479779354 
0.02009616540369176 -0.01855218806593864 -0.03340869406390877 -0.01061560756353098 -0.04043762268386343 0.02590512006308847 
-0.02957218526558283 0.01423159447976277 -0.05677906753237229 0.01849982938708374 0.0001330304663640592 0.02937585149364362 
0.01569559801248181 -0.0262563975460359 -0.03637227549259184 -0.05766153769307582 -0.008444809658894168 0.03016609111725851 
-0.02498562521517284 -0.1535206156444635 0.03672738924027424 -0.01970840133324092 -0.06139505720632171 0.04998311316804993 
0.07732375444367211 -0.03173391766504689 -0.0461941560206114 0.05140221011733712 -0.00916417041474865 -0.08795588488420163 
-0.05606499809007984 -0.03118277898578081 -0.02898833165723869 0.03246370483148479 0.06901960511272651 -0.09604581537922899 
-0.02139667932246228 -0.02887485941352642 -0.02981702485479684 -0.02327786278047617 0.1328534327153454 -0.1074655880727063 
0.01434648771486221 -0.1088234025480534 0.06365937773834045 -0.07632576078037842 -0.03733119288724718 0.0009011673029630107 
-0.009585161561582765 -0.0008825858181866573 0.004595796615665812 0.001101790969592191 -0.00230721099227966 -0.003654467690404011 
-0.009342069801143859 -0.0004352312434783114 0.003042977183860764 0.0027886760493964 -0.002215200963328907 -0.003432601030269003 
-0.009478814344051893 -3.368140496791308e-05 0.003020383338567719 0.002852251435216123 -0.002158137789792674 -0.003695367858012228 
0.01782645437297986 -0.02205711761984332 -0.04108596747457516 -0.04598247209029339 -0.001773215957117225 0.01686569190231976 
-0.03549969983871622 -0.09370534433875848 0.02551548916073946 -0.01741752646885298 -0.007666120444955083 0.0415136839314048 
0.01522760976035677 -0.02276037094573248 -0.04031094614995689 -0.0296181971437132 0.06506218188307199 -0.05394654820184427 
-0.05247211823588879 -0.05123499733598701 -0.01137620881474243 0.01833588538105641 0.02491858089626975 -0.04327344752114873 
0.1028032622307773 0.01311269301051497 -0.03450168362572108 0.02121482176145655 -0.009553032498626641 -0.1365980237232459 
-0.0486953674226581 -0.1162314215608775 0.02992001125304657 -0.04624787821737037 0.008176246946261245 0.0102700657062157 
0.05804104254562444 -0.03742694091052654 -0.03199072557716275 -0.05508666276702637 -0.03400760441861472 -0.003071363268349989 
-0.04721464183932681 -0.04546281544863676 -0.02145256185682107 0.006821597184011492 0.004357643672209453 0.02440644124404951 
-0.01892727378495796 -4.012415403697474e-05 0.01003012795989073 0.002343859539004455 -0.007270408287417302 -0.0106108059117044 
-0.01864016107914708 0.0007993323149443619 0.007530225172193323 0.004749514269297603 -0.007113941337036696 -0.01017401563895474 
-0.01903637306275324 0.0018438770635394 0.007546680321601918 0.004827403349820179 -0.006806034227236482 -0.01096641215680198 
0.05884771600475079 -0.06041323958891973 -0.02290796522858531 -0.01562391462059655 0.02659882599781577 0.001617769288515451 
0.01215339962941227 -0.08855603321844469 0.08148037301676175 -0.0612379744887772 -0.04431516551602031 -0.05504555238643426 
-0.05190208086218775 0.02601371015734688 -0.03531059644775085 0.0108251628005125 0.08796398840139821 -0.070240988936426 
-0.05345414985110128 0.06249553571297357 -0.03401615422828671 0.02377949091670124 0.06740492756500835 -0.09515964011486414 
0.06988780581661952 -0.06260722152500837 -0.03182907778231511 0.05243878624119156 -0.05282774180506665 -0.05783426861375302 
-0.05494245621662305 -0.07173939084637021 0.08685254383692967 -0.08320319585893089 -0.04366320248884389 -0.006740319807779577 
-0.03755881899873438 0.005725244073782722 -0.0279405487128428 -0.01902508988420501 -0.01685336196547389 0.03911370643546905 
0.008294900399404568 0.04713387142279484 -0.05386794196721759 0.009621933965726604 -0.05461742534405863 0.02938961979856467 
-0.02530793130288318 -0.002451435707531288 0.01514162337925509 0.002433301291254907 -0.01349312676340618 -0.01900984762312126 
-0.02537418508992012 -0.001159051320361354 0.01229529950165227 0.005109586931889048 -0.01323602461869472 -0.01893536673786594 
-0.026183043443713 0.0009243152135759004 0.01215000086152932 0.005473210028577847 -0.01255302286264518 -0.02049778162318333 
0.02099538444388127 -0.07664475889986651 -0.02248610317118649 0.03221301268056408 0.02019658433576855 0.01679800450743628 
-0.05708055620860514 -0.03739885619133704 0.06569159768035132 -0.05548070024169059 -0.0268767923234968 -0.08068278959878397 
0.01445239593079876 0.03676643289450186 -0.01931326023153071 -0.006263014804433531 0.01141145148504855 -0.07326997324706912 
-0.06116558878602912 0.0142494195455932 -0.03860831313815191 0.007742707695780403 -0.002357999455987932 0.06895464475856407 
-0.03001597876771932 -0.008637517468161736 -0.0278030327327002 0.06257033142668628 -0.01393522457690619 -0.007654781295896219 
-0.02751628363091867 -0.02786036814290078 0.02355490007280244 -0.007522482790519534 -0.01703794956450354 -0.02891026638895085 
0.0628050671952721 0.05273544257643435 -0.03081131989207904 -0.0242383461157436 0.005697035420029166 -0.07057793631393518 
-0.0118432543628445 -0.01201477978099867 -0.03314211523368286 0.0141262963990899 0.0245668699851717 0.05886460129501507 
-0.02798057279428525 -0.00827393092206963 0.02217058023720904 -0.002502552331561149 -0.02075236334042809 -0.02879161724709085 
-0.02887906922881006 -0.006354520150111585 0.01949150584955069 0.0003787436030005928 -0.02039878120082278 -0.0290407433676059 
-0.02993237647900819 -0.002853737852130302 0.01934472068551963 0.0007966741385898814 -0.01923790021792372 -0.03219891319604459 
-0.03538213712292677 0.04552707451541975 -0.005728901083268821 0.01979749273284469 0.0215019045357178 -0.0291884877633599 
0.007468825489836127 0.03898953986377332 -0.01202509107637858 0.005904315045010542 0.0002638951901790533 -0.02908353265722977 
-0.02236136781647728 0.08115710948588065 -0.05036383409733773 -0.01760419366530374 -0.03510491957064416 -0.03626459881347388 
0.008697470041284185 0.04658895214314605 -0.005596025799573403 0.003729005283377789 -0.01882576727551101 -0.007312408275934637 
-0.03756900132866538 0.02718496493568015 -0.006776576757782076 0.04433915181995732 -0.01299595005509862 0.0158742875422811 
-0.002395750285842684 0.01131330774606935 -0.02917566782367264 0.0163102930930011 -0.03137303646684943 0.01003701216691564 
-0.008459425681938679 -0.006673936963699837 -0.009735490919118175 -0.06840778415656207 0.01478865361839008 0.03556819112625418 
-0.0432549781667584 0.03348685907312711 -0.02653247660839668 0.03765504512555636 0.01030575800668081 0.0204757271875112 
0 0 0 0 0 0 
0 0 0 0 0 0 
0 0 0 0 0 0 
-0.05293711379974323 -0.005779844657794642 0.01493958298276406 0.03024993047577164 -0.01417842548693411 -0.007293623175137172 
0.05389296461908406 -0.003224239585373179 -0.02030723708897697 -0.001771244333063696 -0.05745540602670737 0.007790628652404221 
0.1025428013943057 -0.008747740472587334 -0.05198196239271784 -0.01125504352224254 -0.07664622766585816 0.03425460547997409 
0.03439037035569752 0.02186140090291882 -0.03589460588676841 0.02974490656804074 -0.02519130278118983 -0.0542907008048074 
-0.09536896341078062 0.01119178054799006 -0.01308586548747808 0.05258453672481109 0.03081345662418621 -0.0245296755658683 
0.01076629369535635 0.03922166965329536 -0.03634838659143652 -0.02587876641974276 -0.05597549029015904 0.03144101857453771 
0.01840586645715207 0.06311608084684972 -0.02934129948306653 -0.04530245691811238 -0.01312140145616769 0.01906538156357055 
-0.06011290192154995 0.08038346159267552 -0.05029088529665905 0.03594000966210333 -0.03925551533916296 0.03891793012193114 
0 0 0 0 0 0 
0 0 0 0 0 0 
0 0 0 0 0 0 
-0.05043804380893244 0.04937106493354998 0.008345567458991806 -0.05770861147106288 -0.03568265150962144 0.01727398881210995 
-0.01910371183548335 0.01382055396205916 -0.05436008152305186 0.02837137209328652 -0.00106285806534262 0.01372726091909169 
-0.008478432593209267 -0.003318537080572285 -0.0670237692285334 -0.05200746942576411 0.01663233525113043 0.007225408897860396 
-0.037234658718711 -0.01072802280661551 0.01088649922565119 -0.002294032472326094 -0.03822534017273818 -0.03270034690737368 
-0.04421894358572457 -0.01419414637049733 -0.0404395185079993 0.04575250286642366 0.03253885943209225 -0.06608196311550629 
-0.007482520549291317 0.0126423921333947 -0.03148260004891493 0.03555804831890486 -0.0317337785847891 -0.03715484694562654 
-0.0004868278718630427 -0.04513348825864558 0.01224753313128934 -0.01692590673364917 -0.02246024528657453 0.008462371535083189 
0.008811919212653072 -0.01933591641871014 0.01886054758835299 -0.0445186494680954 -0.05228815835613751 -0.02024043755934038 
-0.00062356022932409 -0.00012444860216243 0.001368076641682229 -0.001257799527737285 -1.024132408321093e-05 -4.502646299575659e-05 
-0.0005642262715420327 -0.0001047168955874886 0.001068070081849585 -0.0009216744171931747 -8.766628202551854e-06 -4.32967980278972e-05 
-0.0005702699722366425 -9.641106284975964e-05 0.00102770643245804 -0.0008521297268200924 -8.782079962343553e-06 -4.875746877018004e-05 
-0.03103288010502113 0.005131188961291014 -0.04929138446498228 0.003853736466864795 0.03616664585899083 -0.03631886432661956 
-0.1012333773318871 0.1247164912262774 -0.01188525481153137 -0.03133094609469683 -0.06173517487604799 -0.067361613486018 
0.05804276848970113 -0.03919611521487913 -0.07743993818909257 -0.03730859883773828 0.04645046578802547 0.01680027303954056 
-0.07912908926573377 -0.08829849455114346 0.02718240396554847 -0.03325132056533997 0.006669552162740976 0.06399247811002244 
-0.01707851060679723 -0.004706254537802892 -0.04646925806760112 0.03413843823067259 -0.06847171504584147 -0.03215429701058939 
-0.1025779236074899 0.06074704516820623 -0.02301847266789992 0.06911233150198147 -0.05897595104632554 -0.0977283155714203 
0.0663108216996109 -0.03123015551388042 -0.01944463354087772 -0.01051176806823188 -0.02319770249861804 -0.07315767626331519 
-0.1029745675998185 -0.05723776143621382 0.08516655393211342 -0.1019706639767758 0.03275685158109433 -0.05171092970918331 
-0.005356112592838809 -0.001530299809680633 0.003173878611398524 0.0005147954849740012 -0.0007854776428234916 -0.001168605559537289 
-0.005181209914007685 -0.001376331132537961 0.002254837191391597 0.001572106308227716 -0.0007428784764975526 -0.001035072389122396 
-0.005272289821801647 -0.001220334173408497 0.002208377721130455 0.001704801099312623 -0.0007613181399606036 -0.001107881323861003 
-0.007241536320274191 0.04952402482895327 -0.03784140567194957 -0.009103989788468311 -0.01215393153395361 -0.03594756712118743 
-0.121675716383824 -0.004572883246805569 0.06475451772148258 -0.08964845237842292 0.05191782183612281 -0.1085877903294424 
0.04119349816620781 -0.009878344224629642 -0.04087518270067777 -0.008392589000816731 0.02280465040531189 -0.0573151610361983 
-0.1173941390987142 0.00946552916102447 -0.001095319224172408 0.02578272796681104 -0.0367973508207607 -0.04078633519048557 
0.01540546214846032 -0.05768778033859622 -0.08247330482712133 0.07764911928600168 -0.04887991960302657 -0.02954054344491218 
-0.0923674117197776 -0.04245821156979029 0.05423349502912125 -0.07216029121984889 -0.05482695546606563 0.02103408096858661 
0.05139728604515378 -0.03946133203265213 -0.04550387550780359 -0.03220847721359572 -0.03449214377699538 0.0375660255552407 
-0.1191357803120458 0.05902630343412583 -0.001774990301212094 -0.0301702180142015 0.003372261461869372 -0.0871874521990556 
-0.0122167642112784 -0.002847117155350162 0.007159255409427999 0.002771915538008252 -0.002789988370648727 -0.00467404520170945 
-0.01193086213725216 -0.002528262317865077 0.005427595353197125 0.004506170426261563 -0.002729757074007709 -0.004362622305151332 
-0.01221968869539862 -0.002066619302912977 0.005415277406513801 0.004670975396606437 -0.002718585729075668 -0.004638295323619938 
0.0001204047397215191 -0.01796135858135907 0.002860873146918422 -0.04646306514906479 0.03003810847911923 -0.05018905430510252 
-0.05720686724421597 -0.0443808144798944 0.05887631689287173 -0.08461866577460768 0.02159121865175962 -0.0626046190693445 
0.03331187211967745 -0.02636934711901121 -0.01360751567917347 -0.03411307303159699 0.0101974043388189 -0.04817335303496083 
-0.05447819801661982 0.01541526478440391 -0.02150703390490602 0.04669576791444752 -0.03840308693659142 -0.02937033627384937 
-0.02544490074560727 0.0006881610609648814 -0.07668751046849359 0.07918015028837955 -0.05365495675861456 0.00529672143067471 
-0.08879760145768845 -0.02964948609765391 0.01764097942218915 -0.03656676041041629 0.008001084951573928 0.0007516968219658185 
-0.006074855176665051 0.03435496366110329 -0.05688021959773275 -0.06004566981002508 0.01726712974268738 -0.0003407717619742517 
-0.02071683354674919 0.05763153062986941 -0.03850447488343382 -0.008662093273700487 -0.04865541871874774 -0.04049258887717116 
-0.01994977488320968 -0.002954392295982382 0.01088437869471861 0.005361652738028384 -0.006706544764984159 -0.01018665281384886 
-0.01966125642114071 -0.002494732104377302 0.00880035893172712 0.007530134450510998 -0.00666472674703485 -0.00993970963890041 
-0.02018500392987653 -0.001591923304217998 0.008808993316853265 0.007766950602174644 -0.006557633445150108 -0.01043749360810529 
-0.0144368395508677 -0.0125418676256553 0.006018423136672313 -0.01717701610807179 -0.007811596361524553 0.006739880171659801 
-0.04982248825403406 0.04001800906521789 -0.02690438817122531 0.009711116801577204 -0.02934193902190463 0.01016847413762576 
0.02161931562543454 0.03876932676064008 -0.01075104929126753 -0.02446072055197676 -0.02246030380127207 -0.04640900599258524 
-0.01702474433026242 0.05862756651728846 -0.01848562653625662 -0.04542757955290138 -0.05420173513544219 -0.02054560261333858 
-0.04378729127502368 -0.01012709868627806 -0.01660772178842762 0.06866547588508244 0.01377401155865271 -0.03091845630729626 
0.005594225375356898 0.01740882633670529 -0.02425655194101546 0.02055838109325521 -0.002776779137087198 -0.04167007428569459 
0.005234002305873897 -0.02411378558354017 -0.02992494774257484 -0.02887362726425439 0.01482180051948731 0.04029748136601921 
0.02746397568662064 0.03182433323233883 0.003561327679954002 -0.03959048300193073 -0.03127005526909608 0.02442107374589989 
-0.02563624735550127 -0.003947939952404499 0.01640749834807717 0.004790471690327838 -0.01262467264687314 -0.01823112052507759 
-0.02550660071718593 -0.003151052749922098 0.01420928452365157 0.007198958060503993 -0.01255205082357328 -0.01815223373688313 
-0.02623489442979425 -0.001606748854260158 0.01436598390176501 0.007356474490862463 -0.01234655405995742 -0.01917192436148576 
-0.006923853609967288 0.01504695577776815 -0.0373391574999099 0.0531335949087608 -0.02607598035653063 -0.03311252508021931 
0.0310062313223062 -0.009675427729821029 -0.008298853670463513 0.01901145033762613 -0.008178618403803739 -0.008264415413231979 
-0.004696584581922456 0.09987972638052339 -0.03323780377762967 -0.0357483182594986 -0.03193769990348292 -0.03580716601613129 
0.005715252142916039 0.002778326468231788 0.01358130563441647 -0.007819785039673101 0.004593152124097724 -0.01258323969641009 
-0.07278130815099594 0.008942235243856057 0.01184842158050642 0.02040383492256715 0.01276025850472655 0.0297064475471879 
-0.002512167675066915 0.006096566324066494 -0.01071540085950227 -0.008428062533996755 -0.01749015850190311 0.01533585515326491 
0.01610137606856815 -0.04476045226172273 -0.01844474068906212 -0.04125405278617065 0.009918240967219676 0.06486772056055219 
-0.03455019732799691 0.04577149509095377 -0.01381888242177581 0.004432558690718351 -0.01841502510707061 0.02000971761321483 
0 0 0 0 0 0 
0 0 0 0 0 0 
0 0 0 0 0 0 
0.01863855465925383 0.007313993607943286 -0.0223223870588384 0.02452699091222352 -0.04163542784903718 -0.05908026307593366 
0.01272970404944104 0.03366313581621378 -0.04952901282994189 0.02855682534752094 -0.06746576861708144 -0.0058546738841478 
0.07836816504662369 -0.004870034392934081 -0.02412377761361224 -0.05842013001342738 -0.06378923873114374 0.05035789960098112 
-0.004157178877578709 0.03489120184666428 -0.02867722242377309 -0.02010837210458738 -0.04201743969815194 0.03800582155721628 
-0.07370979008038842 -0.02929612745400547 0.01106819600458763 0.01945263175027997 -0.0389210834057019 0.03289880926804891 
0.01178574189312196 -0.005980345336997902 -0.008947989732203383 -0.01634675845101693 -0.02716139137345435 -0.01232842032989437 
0.04954854682137785 0.05714955141677119 -0.008519908838076785 -0.05647282936880158 -0.03959366050069909 0.01512630707572034 
-0.006537508236393174 0.06701711311126729 -0.03338612638076396 -0.005258803511358179 -0.04537590922387249 0.002461816097444882 
0 0 0 0 0 0 
0 0 0 0 0 0 
0 0 0 0 0 0 
-0.02242255578241303 0.001917412466494368 -0.03371491384140086 0.006994148507425483 -0.0412434619017947 -0.04819357694262948 
-0.04126363126611349 -0.01614206850512282 0.02935667210467197 0.005429724380031904 -0.02491450169831075 -0.02061070231828493 
-0.01245973174234899 0.0187453697474731 -0.02522015873364156 -0.1081314994184598 -0.002939553393493068 0.02876020940458947 
0.02290680660853898 0.04805559933353269 -0.06687401534526853 0.01539431210490826 -0.03346865082841116 -0.01614078168879401 
-0.02604593164881596 -0.05460302826768858 -0.003356222171353868 0.02531443099503397 -0.02220659777710458 0.007148336351277762 
0.01315961561029724 -0.04404596422140351 -0.001153862719734709 0.004056449892545444 -0.05035857080937168 -0.02196639123887967 
0.05724252739927752 -0.08466125550897056 -0.002263555859616864 -0.06742043009989043 0.03545350784589958 -0.04267443461848117 
-0.01428561784134548 0.08827573950638391 -0.05045111674091516 -0.002090083814692845 -0.04199900009359096 -0.01549368693595124 
-0.0001523095139689422 -3.966009615050446e-05 0.0005039518160605748 -0.0004690054915980025 0 0 
-0.0001217235575488259 -4.026906952875885e-05 0.0003688072020872616 -0.0003178377194033254 0 0 
-0.0001198425526091001 -4.336649389806609e-05 0.0003463617685658113 -0.0002870058509510378 0 0 
-0.06935262703493081 0.04872074204135144 -0.02147674152751127 0.03545074321875695 -0.05556887811830802 -0.05812992502580495 
0.009940663829204249 -0.07474287811518934 0.0316391690910594 -0.02009982802625288 -0.0512790783093752 -0.05454643150393889 
-0.008508509976686377 -0.0393467946984954 -0.06729748177770477 -0.0561366829199396 0.06820641474586651 0.01177223596626289 
-0.07340931493388042 0.02005895318115499 0.003165197093111152 -0.04296817769352532 0.009133530246285798 -0.008466739087010315 
-0.0657059996232264 -0.0201187040630098 -0.07189035659776291 0.08710001221024499 0.01098284299937537 0.009232977642725071 
-0.02664726700790395 -0.08038377337820776 0.03833296529168376 -0.003185965113681402 -0.0285484556548206 -0.08144537062266775 
0.03765943136390465 -0.0804877728023299 -0.01091783772139614 -0.02883949958703724 0.0246782298800096 -0.03108243780184708 
-0.09664288152041643 0.1436544894443292 -0.01023726133294479 -0.03538204742032519 -0.01062045058959422 -0.07195386713458804 
-0.002499062585183869 -0.001106355665451981 0.002700502740628864 -0.001359303177210824 -0.0002395368404459565 -0.0003214619057107245 
-0.002402985833463108 -0.00111133679235131 0.002269473147347493 -0.0008091794746048426 -0.0002302674327253217 -0.0002722765179388751 
-0.002429193934549552 -0.001098673380207377 0.00221699571123667 -0.0006739453704270466 -0.0002321303305348168 -0.0002867889725448998 
-0.05310670718944274 0.06376755049610902 -0.05871550165263578 0.03088149917155056 -0.06153120153244353 -0.05654880183059083 
-0.0766009101440496 0.0568082175652164 0.03693071082445495 -0.04692019899603916 -0.01208183558079043 -0.09924536507076211 
0.05186861406158264 -0.05180029451372875 -0.02570865402625788 -0.03443468845230963 0.02804757034264586 -0.02827782173056929 
-0.07073587488983132 -0.04839179972416634 -0.002514310823637121 0.02134903207925207 0.03109729213728831 -0.05420839260134468 
-0.08492034401973887 0.02518680427036045 -0.05287727315641776 0.05330334747113354 -0.004506432937203787 -0.01454369182746257 
-0.07339930386815317 -0.0002533834213474006 0.01142962871424582 -0.02616279942398012 0.0447880562339432 -0.0679953165182505 
0.02154080402529818 -0.06162317505680565 -0.04775154606405858 -0.03677261446356508 0.003974940156338 0.01428646069462522 
-0.02295667239316636 -0.05702997438233681 0.03995874809496724 -0.03878789648374344 -0.05015746568727114 -0.05063683636421266 
-0.006473128294239195 -0.00217531852527981 0.005495072430814925 -0.0003329109414945086 -0.0008535839778558168 -0.001286427452255617 
-0.006321926969833721 -0.002171267989234173 0.004660156829895166 0.000608199354007286 -0.0008556359715493195 -0.001169497053501231 
-0.006465406945408912 -0.002024609758058051 0.004654007211164066 0.0007662928496744532 -0.0008808531163814575 -0.001266107678240633 
0.001519282290809529 0.02012117617012086 -0.03556783531367006 0.0139219992781188 -0.05301625579378479 -0.05676761169407725 
-0.05955416381220918 0.08555847235641319 -0.0220722743816425 -0.0106845713724944 -0.04119597814668133 -0.008879107237244416 
0.07722850797493502 -0.1030961015065345 -0.007857593706372771 -0.05896787089645075 0.05270642454448243 -0.06338373550016353 
-0.01983038783566504 -0.05407816394167711 0.02799301578834179 -0.0131270685072501 -0.03742021842853646 -0.04374334089520152 
-0.05173229101327697 -0.05199498612896737 -0.0201465996061483 0.0149065723791936 0.02969562652866882 0.009208759443286628 
0.02463688202945514 0.02841443662375645 -0.04375496250816981 -0.002039851144274737 -0.0034263056371115 -0.01994018729146721 
-0.01516519170848271 0.03775445957327658 -0.04919330314777851 -0.08486481122003771 0.02415256145205783 0.02888857170868562 
-0.03294152799604236 0.01326160203093772 0.02560025808086709 -0.01028872706094275 -0.04402725086579878 -0.06532066467328818 
-0.01167298547736049 -0.003709445407790904 0.007955498914050146 0.002730924231266947 -0.002435425101765972 -0.003802351331430901 
-0.011487280352223 -0.003625744056959645 0.006843796725816223 0.004101564029797184 -0.002453068676532617 -0.003711948851593136 
-0.01175553145015407 -0.003316063019595808 0.006899471480236374 0.004311942377327549 -0.002483785683237073 -0.003927664399285996 
0.01689690250628112 0.03863893699971125 -0.04198225815660617 0.01861070250990863 -0.0723455593136674 -0.03718253108062669 
0.004830695102353169 0.06270673162196418 -0.04323439419480815 0.02864485134983506 -0.05265013249724499 0.003062300392744603 
0.06824210785402704 0.002513324758886507 -0.0006709966518052842 -0.08992476437885927 -0.007519780229054145 -0.0438070973409032 
0.00312188211205583 -0.01454125881822084 -0.01577604366164987 -0.01148622851831152 -0.02288641571816481 -0.03865417465413485 
-0.03268547317290417 -0.02911218045213243 -0.01578223178345902 0.0228451001828143 -0.02805186956651477 0.005126515907686902 
-0.002420174169254875 0.03062438687077972 -0.03051488066794445 -0.01692402662723099 -0.02187618237742178 0.03302609293360583 
0.002026444833212882 -0.01194557702245292 -0.005168130248589467 -0.07650971613587447 0.006127491807094227 0.02665345097176769 
-0.03361820954349542 -0.006432425914818502 0.02908695160288986 -0.04183874608880551 -0.03419240958591154 -0.00338804248454749 
-0.0174237570481484 -0.004862618063328979 0.01208628475591243 0.004631240199810484 -0.005681077813542988 -0.009408858844307189 
-0.0172723960441235 -0.004630663076557919 0.01084548144902634 0.006245489535678665 -0.005722691918165509 -0.009399426619882571 
-0.01763706794697072 -0.004051077903329092 0.01100421426572109 0.006456601312829047 -0.005772219593920076 -0.009764390237387748 
-0.03820063461888528 0.05317082879662225 0.008968243135180768 -0.009225033027344488 -0.03702382893428584 -0.01858126885458298 
0.01099293882916457 0.01253308405277779 -0.01283911121573807 0.02785607429206823 -0.01768321155261301 -0.01121699119074646 
-0.0005765245722213889 0.0411288553994796 -0.02205545301104731 -0.01598176377671372 0.002159770930709212 -0.04462569337057803 
-0.007044102159269227 0.01185911557996023 -0.006695894170897383 0.00583550709100489 -0.009818501171560514 0.01718460433582524 
-0.02110225515320305 -0.02347409047668193 -0.001296607582221887 -0.009432412968866594 0.02618129911595152 0.03159914902184209 
-0.05701802861477142 0.02092225342308753 -0.00803404237168482 0.03867906392740622 -0.001229372648974924 0.008885600910495841 
0.02289698693715913 0.02423794773417681 0.0001474854571169241 -0.05710316546763582 -0.06579920863856001 0.01933457473095762 
-0.0003280956549333135 0.01953575182429403 0.005887701393246186 -0.01329022689135182 -0.01780148456819139 0.002627828189053443 
0 0 0 0 0 0 
0 0 0 0 0 0 
0 0 0 0 0 0 
0.01516541625401053 -0.05910334129299874 0.001699597530069309 0.02789866845611806 -0.05145562659748693 -0.007211148463785213 
0.01395005483921385 0.02895095253466714 0.01305534237993492 -0.02299085921019063 -0.08482312499929007 -0.0112783785454384 
0.02850986006744513 0.005885003367240065 -0.02096267219749721 -0.04581926853245688 -0.06615569410772627 0.03306589463553469 
0.07358585151208506 0.03340080719528038 -0.006973999811172639 -0.06886525525238942 -0.072989028558358 -0.01897817746824075 
0.04351560603212289 -0.04259904721124202 0.02266036732694181 -0.04458470157411863 0.003054991216912466 -0.0298328090045674 
-0.01261147712952117 -0.02301372615727789 0.0197583207165728 0.01465681512685287 -0.08616480125082944 -0.02611184357626688 
-0.03502099185818537 0.1031841122059244 0.00959850166546504 -0.03927682405836471 -0.08635964029307359 0.02805431858120435 
0.08193913218359128 0.01413059799925217 0.001051860255275206 -0.03928954363138696 -0.03603062685090309 -0.002632748094253475 
0 0 0 0 0 0 
0 0 0 0 0 0 
0 0 0 0 0 0 
-0.006307322068742483 -0.09128245425928783 -0.04203360116284888 0.09679320066466188 -0.02486687347887977 -0.06197749351722397 
-0.004239447960400328 -0.03001813731128139 0.06549488624151918 -0.04453427816625263 -0.05712323483839181 -0.01747014520548994 
0.01418111845160172 -0.01259569135344167 -0.05116361659054128 -0.03336432031153359 -0.02230332536259315 0.04087461284753072 
0.06415917442889843 0.0161478421488323 -0.04236155661493375 0.005440363322726317 -0.04001588516739688 -0.01431786155037327 
0.05585525236357407 -0.05850418622829578 -0.009322591645505428 0.01722807311321408 -0.01301391133371945 -0.01335029066506013 
-0.008065370175330863 -0.06096646690983391 0.0114936909185488 -0.002454618956907855 -0.02192793961733923 -0.007919064945094171 
-0.05877947472070753 -0.01382221149693352 -0.007261495048429951 -0.03144570335036247 -0.002739871185355839 0.02995179190483931 
0.0270173840017707 0.05383419066282315 -0.02333687736521183 -0.02223654427394937 -0.02459850138311019 -0.05922385322522374 
-4.823221110729237e-06 -4.170784372945588e-06 0 9.27963335972615e-06 0 0 
-4.851893546201261e-06 -4.206160506329313e-06 0 9.297010648229783e-06 0 0 
-5.117453768646468e-06 -4.471145654242023e-06 0 9.784489252675396e-06 0 0 
0.01938248908741778 -0.09404171390051796 -0.07896858507895381 0.1525564226216045 -0.006950710712658863 -0.1089688703625364 
0.01779691276305871 -0.07056143174653642 0.01068631967995494 -0.0007433369965825199 -0.02059255089090121 -0.07732316471850058 
-0.04219965202461969 -0.01794007442003721 -0.0131509429516026 -0.07787180852818229 0.02725119452570626 0.03677716327841215 
-0.01211281924700779 0.05562016028614229 -0.0580796743559251 -0.01160902320404874 -0.00488784953272688 -0.005774700654015303 
0.03584448890763955 0.02145942194384356 -0.04066320128158696 -0.004693365820117223 -0.01406176921529488 -0.04103310777472437 
-0.02088629619229668 -0.06309599464158251 0.03490744387646851 -0.03804065272248972 0.02680726314015087 -0.02314871137126478 
-0.02291322436486502 -0.0161121854740184 -0.007481439142663361 -0.05133183751588465 0.0547653998868184 -0.01768062630694538 
0.08780975051434711 -0.01696210681629313 -0.02082281127445393 -0.02614372355362419 -0.04719554498392163 0.01719643464153527 
-0.0007918465786978803 -0.0002163569216298698 0.001960533878180765 -0.001776388344332732 -2.333691853128409e-05 -2.95125323446276e-05 
-0.0007697069583367546 -0.0002219158236736598 0.001834138861326014 -0.001628235772147059 -2.369856183328297e-05 -2.905754912318363e-05 
-0.0007817684157287551 -0.0002350319079785623 0.001809725755490822 -0.001565558287400179 -2.410505217676563e-05 -3.144311092438523e-05 
0.04951629549992612 -0.08631468761447605 -0.05255104204792883 0.08323145756093912 -0.04497591997783358 -0.1286796600712873 
-0.008841221631042652 -0.01680249102124438 -0.004439785786455654 0.006204280829326998 -0.005779235103692967 -0.005875197959793564 
-0.02257423893443298 -0.02670569427343682 -0.01222443823375784 -0.06476443721510125 0.07468915978859987 -0.01561043312894778 
0.02021551116543074 -0.04693572948347401 0.01716082998489647 -0.02837290095430073 0.01474041853395357 -0.05616930897949609 
0.04536065313820557 0.0360684657726232 -0.05693893951100844 0.00211297491668 -0.01525848065465039 -0.04796456220645234 
0.01990952291002259 0.01180590056774476 -0.02365751777595584 0.001923249208506205 -0.02969568916256056 0.01185777364835336 
-0.02753768498089143 -0.01511862673835509 -0.0408617448225218 -0.07859097063373133 0.03557242698662633 0.0477891438994346 
0.05706067291801428 -0.07124954804216613 -0.01160077578587385 0.03048673385683996 -0.01257928562698124 -0.04179597765948534 
-0.002771191591940353 -0.0006672746346173613 0.005424057327765549 -0.003747028664188125 -0.000151904125806135 -0.0002611579263877911 
-0.002726062526418892 -0.0006738070364923265 0.005038450995821696 -0.003373833760897056 -0.0001515882479978642 -0.0002296908521609988 
-0.002797178284240268 -0.0006236949403723108 0.005009410506702604 -0.003222781966859845 -0.0001537371445867631 -0.0002563205210620094 
0.000807659552553993 -0.1120746735630675 -0.002101591185929 0.05710238129886525 -0.03358639832318421 -0.08264924897513955 
-0.007599294665937624 0.02013536945449967 -0.02060092661862458 -0.006871845059806813 -0.009758279284416136 -0.01611020282992236 
-0.02255615552813127 0.006502025108501421 -0.008931272326066025 -0.03247721094346501 0.04252401822730024 -0.02599482202910997 
-0.02529247540290263 -0.02832289239560953 0.00373455561332372 0.005957506965148859 -0.02909322395331268 0.02484839484466066 
0.05448539549085806 -0.02879391697408951 -0.04026952853145216 0.06115093749577388 -0.02366982547205069 -0.03879893264421205 
0.04462143164848175 0.0154184472371965 -0.04135339177726167 -0.02386991631557482 0.001614468224067934 -0.03437827723133879 
-0.02141135271600791 -0.009390279443049038 -0.03915521678361213 -0.04691730735204971 0.001502081838992422 0.0349796688273205 
0.03942679922034678 -0.03360590894524217 0.05940425668739936 -0.03812862714570556 -0.06017560481662087 -0.04974907660513668 
-0.005639524354716746 -0.001166776637254233 0.007426853757186424 -0.002222100614079731 -0.0006908952304198178 -0.001131904598575929 
-0.005565655005945453 -0.00114406714548873 0.006886876014898108 -0.001602220007512668 -0.0006937867132974845 -0.001109678617351113 
-0.005707839463190291 -0.001015877500410055 0.006900709636465552 -0.001383783711731296 -0.0007038264249125453 -0.00119447532066052 
0.01867978613517456 -0.08447588935649236 0.01182035413239532 0.01429077710804543 -0.03474603491425044 -0.02514907135454078 
0.03572746131365988 0.06030151253895347 -0.01695138188191169 -0.03401122659169948 -0.03774668100209136 -0.04254544848535319 
0.01289007809742336 0.02518751620006612 -0.009473523365863414 -0.04716860393317476 -0.04259192492793003 0.02131733792313509 
0.003651073605738643 -0.01647159042225998 0.007400194697540614 -0.01084082598721396 -0.06080206251639143 -0.01400003279768292 
0.04349364767007353 -0.07237469715337624 -0.008126819806902169 -0.02525901674036814 0.05958883110807955 -0.01965376411419224 
0.03441676106590509 0.06100631244329196 0.0007742218528216471 -0.07144948131833871 -0.05446596084691534 -0.002775893698909524 
0.04889983105368521 0.01904822502173497 -0.0009071261873927374 -0.06475405391533912 -0.03890389112863847 -0.02660173629938856 
0.02680819529988058 0.01312939513542394 0.02342896756232802 -0.01399055939942513 -0.08608344444510603 -0.04869624679582212 
-0.009744458011741709 -0.002921095267614988 0.01023623088227203 0.0003024810322173222 -0.001978838477391936 -0.003646240251086711 
-0.009651845476393934 -0.002841060305419691 0.009614753594169426 0.00111067837474678 -0.001987345092328592 -0.003671162829641521 
-0.00986244970677419 -0.002598194711562871 0.009733159218298331 0.001348232592667193 -0.002013500077222765 -0.003831808173668661 
-0.07606032568457424 0.01873622734614827 0.003118929481174615 0.02058520131178801 -0.02620871247004634 0.04094724131014254 
-0.02684565794538233 -0.02499634807876444 0.002646938290449417 0.01813233867867232 -0.03766914473020739 0.005431814108627115 
-0.01449062274626415 0.03393015964213258 0.01566528303737626 -0.03483537520998617 -0.03058256901419013 -0.06471812886352431 
-0.0008139636157080582 0.01623037492611883 0.000139090552339282 0.005691253600195061 -0.01060710099991975 0.0006872349962023286 
-0.01460335626036216 0.008637132328504904 0.002603285498057293 -0.001183413364664463 0.02566863985417107 -0.01965305945294955 
0.02057707003740443 -0.06050828248706929 -0.0002055375344478349 0.03855523097106507 -0.01579278455724076 -0.04480241428309264 
-0.01516735765064076 -0.004638855414942343 0.006791755119080731 -0.02942443050095954 9.851648074450232e-05 0.03536658466987565 
-0.04448427165184542 0.05390929232364623 0.005151595767963195 -0.03888901381132648 -0.02200638638250085 0.02232971207423419 
0 0 0 0 0 0 
0 0 0 0 0 0 
0 0 0 0 0 0 
-0.0006614190464790341 -0.03012791041058371 -0.0185991850381907 0.04488019297059839 -0.03813574373152265 0.03218661680483016 
0.007496539365039276 -0.06194157100112134 0.03444167698036141 -0.007518862568559344 -0.09045279135131512 0.006330193171409825 
0.1142968035036512 -0.04384888221437278 -0.01491510430874017 -0.03204982360751173 -0.0586923623442578 -0.001520879579891205 
0.07010597342468181 0.02884243713720204 -0.006698124692519145 -0.05213064247909151 -0.05488853982926065 0.02013650128857497 
0.02577029561641747 -0.03402310255700498 -0.02065573096969928 0.02978225602098025 0.03667940046506722 -0.005145234325920404 
0.04491601127691305 -0.0812418464974789 0.02976841522641374 -0.009520111262022943 -0.06628800861141874 0.00584045691788975 
-0.04541989512607343 0.07265920279571166 0.002855743230811098 -0.01462519599821734 -0.02847606241238318 -0.0002899784433391136 
0.03043855576971487 0.06423105952877881 0.01313453431848101 -0.07577241834651419 -0.04748953898674781 -0.002152180760605111 
0 0 0 0 0 0 
0 0 0 0 0 0 
0 0 0 0 0 0 
0.0124774505424079 -0.06219022196929337 -0.03444984449524809 0.08835403446577414 -0.02603105339046566 0.01393160548750688 
0.06627529867501494 -0.08973083211892389 0.02072444865436904 -0.01420639839377477 -0.04405864450913013 0.003257711621607474 
0.05706057597470482 -0.01080921500987328 -0.01183751247895733 -0.07951792973637431 -0.02611452430727102 -0.02366084860970703 
0.0754291430459028 0.04377312333818548 -0.005324674437496132 -0.03704784586616636 -0.05203766431331512 -0.02577584152231459 
0.0464477284430707 -0.000493684103521113 0.001594197146668014 -0.0132227855138232 -0.01284048799564544 -0.0003097778353839601 
0.05008569635388236 -0.08360855674936198 0.01598071972133275 -0.007046726371858311 -0.02916983491634413 -0.003424826391876868 
-0.0391666963966905 -0.001710267861197067 -0.01704598875287408 -0.008933642283206398 0.007282211294832169 0.008659512326161082 
0.02471719848901276 0.03978092955503109 -0.01204354047652875 -0.0114981100708974 -0.04723138072358458 0.03102633460725355 
0 0 0 0 0 0 
0 0 0 0 0 0 
0 0 0 0 0 0 
0.0123541175524072 -0.02454800042778764 -0.02987163547163101 0.06648190253557273 -0.03623886406532636 -0.01478033488455346 
0.007504377219822034 -0.04183176017246536 -0.001029912285243456 0.02354753480026029 -0.02807806125516178 0.004293653562323056 
-0.06907756533349867 -0.04405493967215156 -0.02458865351479736 -0.06014277324235804 0.05964784531217325 0.0658739440278692 
0.09062822586873694 0.02190000013028609 -0.01490166378059466 -0.02059471452512088 -0.0503310424384221 0.002197331930451581 
0.1056368150402262 -0.01097362986540935 0.02664983134634857 0.003952918418674966 -0.04913951307062453 -0.07120689908123776 
0.01668736851430861 -0.01802422615941352 -0.04235828225087663 0.0313931845206823 0.02495092387122045 -0.01815214888501542 
-0.02289783583755558 -0.003586026732507862 -0.02448948795347319 -0.04266686760582925 0.05356051615392146 -0.02153543825722457 
0.0745525410891125 -0.02514379106268749 0.004589759350818288 -0.03023356435364597 -0.02582840178701962 0.02070385111629967 
-0.0002511028594711563 -4.946400370720399e-05 0.0009090113236652056 -0.0009120631847191103 0 0 
-0.0002512512065061747 -5.110848277462015e-05 0.0009028486580172984 -0.0009023987131545238 0 0 
-0.0002588179859348516 -5.858768382488533e-05 0.0009015389823129477 -0.0008872467896825976 0 0 
0.03684567514022463 -0.05512129443904201 -0.03825596652111261 0.06764538113061411 -0.04016069701918017 0.007791878545029865 
0.02599767743311232 -0.02031483993261277 0.00819515376014957 -0.0175561992142853 -0.03701198005363707 0.03924366836126307 
-0.06237299491702965 -0.0351568813472635 -0.02265771846669301 -0.01346983399218231 0.07704224602371995 0.02402670861340449 
0.0210122937706622 0.01817882635856438 -0.04219928083828064 0.03261420076217957 0.004320706520766378 -0.03391016044132401 
0.1130765468466044 -0.001320554158055591 0.01318462626573922 0.001804671437626796 -0.05014460984009521 -0.06637013375174364 
0.02871593001627869 0.01532209445896783 -0.009286414145626302 -0.02494417332983795 -0.01416774019381039 -0.02250481119239272 
-0.02661021617876298 -0.03152019001682428 -0.01305442944417512 -0.04752164518544132 0.03529546063540433 0.03808459362197813 
0.03015227326134294 0.002705922899513792 -0.009934329507063442 0.0004904839447599325 -0.02486205631926814 0.02396584198961206 
-0.001224571034287519 -0.0003143985809586187 0.004214466788022347 -0.003958391616243118 -3.596260428092963e-06 -2.660056392854942e-05 
-0.001224916877426074 -0.0003157406180931216 0.004154043086628643 -0.003898716494374373 -3.677906826628235e-06 -2.36560292265987e-05 
-0.001272547309555896 -0.000324890875437701 0.004152975647261481 -0.003815243553533512 -3.754274634601661e-06 -3.156251210092734e-05 
0.02550829860020832 -0.05550496186127219 -0.03150083143684368 0.07407706896292232 -0.03273002741476193 0.01854632800383882 
0.01400444975409819 0.04352078369853534 -0.01259226685168618 -0.007268099983749945 -0.04203150941630911 0.0230417938826547 
0.004008548203826728 -0.01598578226211961 0.008628485580677622 -0.02304726029199593 -0.003523683491146715 0.005972979730073157 
0.04045766652422439 -0.07002948158796432 -0.0006711464307676614 -0.008416015489084062 0.01385468875324079 -0.02380084140562834 
0.06161704962420414 0.006878080979765409 0.007878096402123631 -0.02415162744282218 0.01152203377819645 -0.04688908389071346 
0.09142698097734689 0.02941836704687693 -0.008716167494594971 -0.02389682156036962 -0.03335780819991417 -0.0336875193966648 
-0.01380011700045452 -0.04651608813319967 -0.01602707084058566 -0.04662096102937112 0.0066803929845892 0.05076286602977342 
0.04882360727091221 -0.06178063385518669 -0.01241562628922367 0.01526831772329391 -0.01047829376372042 0.05075357297373733 
-0.002810622458846956 -0.0004623020980477444 0.00679586239879174 -0.004873301041713208 -0.0001483236786690467 -0.0002754758433680773 
-0.002806074250272422 -0.0004513180891476529 0.006681845338470297 -0.004704401731832302 -0.0001485527987034293 -0.0002915630509812631 
-0.002900235798274503 -0.0004111801017862285 0.0067150060057315 -0.004564996209472084 -0.0001488342874723013 -0.0003310004877326482 
0.02801722765332688 -0.07299597890789747 -0.01055855148951216 0.02958697518927895 -0.03777096382944174 0.06773295803209009 
0.0562003140995813 0.07976460305499608 -0.005046594501199667 -0.07329427654241968 -0.06511704803301201 -0.01062449002835915 
-0.00696680276318315 0.0462698565532441 -0.02600178640751398 -0.01454685902949806 -0.03823509477533264 0.01548047734600571 
0.05612346522751612 -0.07911754019155283 0.03611788715866656 -0.01952660181896691 -0.03498125603132096 -0.01892126898560942 
0.06729496976876106 -0.04510603443302077 -0.004733409460415324 -0.005449552611449724 0.05907095104757847 -0.04227283096712775 
0.07529584179151129 0.0313137037794208 -0.01062072956989992 -0.02854557598403436 -0.05393245246595378 0.01524896311696046 
0.02666716164657307 0.01281024115503623 -0.01951833819241027 -0.03175392164314133 -0.01225964697371379 -0.01745930192868793 
0.038454486906732 -0.07117258041232646 0.04144979842840345 -0.002331322879705446 -0.05232690120120174 -0.01792542681012444 
-0.005089847036513192 -0.001274996174999942 0.008945708748774706 -0.003320441246129881 -0.0006946672793933652 -0.001241913542049164 
-0.005081254917828277 -0.001239534539119568 0.008842057682810992 -0.003069761966174724 -0.0006987245714542918 -0.001302713699043331 
-0.005227069237166909 -0.001130963896927477 0.008974253587864044 -0.002916015837061285 -0.0007054046807678772 -0.00140141391280635 
-0.03839117099578031 0.01831342909182778 0.009542319199287622 0.0268172275692539 -0.02069388960265443 -0.00684985748578444 
-0.04282422580574563 -0.03782076807032926 0.02277573448424736 -0.001511541551452145 -0.001046677159585659 -0.003076403815488027 
-2.198911886564385e-05 -0.05043178121042554 0.008528485866661186 -0.01492046486145325 0.007126580422844046 -0.0361847556031601 
0.01469688915069966 -0.0251793038811056 -0.006242585965245841 0.007280473351193032 -0.01771012737686607 0.01533353644163601 
-0.0739980881843965 0.03859508518130349 0.03314411705739638 -0.00186657623860954 -0.03934161598562966 0.001426364277212139 
0.002961105778184956 -0.0254695781378308 0.01404895080477314 0.002173968202546476 -0.02210563500928135 -0.03016742984469368 
0.01561380918887278 -0.0466297364043305 -0.0002933662435238187 -0.003589772334310612 0.006038085907393674 -0.004236806708074845 
0.02558807828946362 -0.0141100780570381 -0.00188738186780972 0.002783058739217734 -0.00469307210711042 0.005231767132133766 
0 0 0 0 0 0 
0 0 0 0 0 0 
0 0 0 0 0 0 
0.06145752911957825 -0.04732901900192908 -0.007233995127649468 -0.01326373782945427 0.01666691696899891 -0.03256007088021851 
-0.01026282836534753 -0.02740979975993088 0.009629907967604063 0.008664213443069736 -0.01661150465531324 -0.04212005062828325 
0.02186954425052426 -0.02747776058917162 0.006166628809749589 -0.002893728604644594 -0.01314903100456879 -0.01752279097357243 
0.03207924857134669 -9.224881323909944e-06 -0.01319913667233944 -0.01313153465767201 -0.03453214451521857 0.004043942522929081 
-0.04635760822593853 0.004280863470523528 0.004017976740445441 -0.0260769639780869 -0.03140379276274557 0.02506352100788097 
0.00734927757489315 -0.03234912705443544 0.02386102425414742 -5.724643692562533e-05 -0.02025399711074444 -0.01522250560188248 
-0.03365464383643071 0.02579951419351359 0.0008707151512159133 0.00689014974023446 -0.01472775040795911 0.01259920732353416 
-0.007254523362511957 0.04063484924173679 -0.009115905415538859 -0.01913172219461343 -0.01817713453353791 0.0420678221321446 
0 0 0 0 0 0 
0 0 0 0 0 0 
0 0 0 0 0 0 
0.02266286684163569 -0.03917861328535162 -0.01574096131513463 0.01458319025303022 0.033065605494914 -0.0467028999961391 
-0.02465862799772911 -0.02837804193059489 -0.009418797711209344 0.01458479167973122 0.002810624942295953 0.05894614647517832 
-0.03854090573456376 -0.007918282596047379 0.00699887884505809 0.008905948761471471 -0.002300851318269083 0.004081307519844091 
0.072458395044616 -0.01587168551219719 -0.0163526122332204 -0.02450034936836445 -0.01706970746020191 -0.006715474061064403 
-0.008565677632923653 -0.004750359132777919 -0.01154523746960391 0.01455842329099709 -0.06806177792421945 0.04569610391111302 
0.008775680631907543 0.01510533812506976 -0.01866519822782681 -0.006702199902936515 -0.0101416369792792 0.003813919871810693 
-0.007281909691599478 -0.04199872580309136 -0.01353676536953615 0.01957096436620907 0.01567229499861061 -0.006225788797138442 
0.01039909054895152 0.03134605295091033 -0.01872882965349812 -0.01553264041797703 -0.005218731786823318 0.008707638431368863 
0 0 0 0 0 0 
0 0 0 0 0 0 
0 0 0 0 0 0 
0.003735483460576095 -0.05934204434511095 0.0314214422432563 -0.01401818402222208 0.03968996252229676 -0.02986823227951515 
0.02718375748653861 -0.02731460691298249 -0.01373522399617961 -0.007798375271082488 0.01562583320670054 0.02784099234077562 
0.002563648356168813 0.004984785090480364 -0.01903677742399962 0.007332236426187447 -0.02732928460992268 0.06279816384129032 
0.07465351305095026 0.003078049249851234 -0.01716598720703063 0.003688909540797495 -0.02624862283578366 -0.005041981292008338 
0.02695872436903622 -0.02697047897543518 -0.02774531944352232 -0.03175889696728339 -0.02803005139106316 0.03152385611998628 
0.005698992162197516 -0.01685139474985696 -0.0192749503597307 0.01262985749702741 0.01840557739763797 -0.005078414864959756 
-0.03733924680586261 -0.003282120539222475 -0.0151392949164238 0.02394559543727714 0.04186482226645603 -0.004729148117297824 
-0.008976069086755644 0.04832184361622834 -0.01675563725188765 -0.009402035384058829 -0.02077880828442649 0.03074030817620088 
-6.531525467562177e-05 -1.96428429863627e-05 0.0002020879693597941 -0.0001862857824160122 0 0 
-6.603856968590498e-05 -2.032084081185162e-05 0.0002020879693597941 -0.000184996815618822 0 0 
-6.948083016403049e-05 -2.351652114901481e-05 0.0002020879693597941 -0.0001789688007655836 0 0 
0.02331701732197901 0.02183373921838138 0.02807273643906488 -0.0286046645845317 -0.02148867103945385 -0.04423800633206139 
-0.04249387743227419 0.01145203099273261 -0.01033515147892638 0.004470165433235284 0.007379502788146194 0.03331217156669641 
-0.04320184579307491 0.0344490953235427 -0.00973739476444589 0.01395763553135345 0.02710789401243742 0.01176915556947849 
0.02629635936288004 0.001969967113340527 -0.01190999541110064 -0.007837700851780215 -0.004270436485625414 0.008956324376722374 
-0.02044281600696731 -0.01904830053693193 -0.03007938392048653 -0.004684862545265684 -0.03704448528763331 0.101282604695423 
0.08491582509345576 -0.01861536983397578 -0.0112800207900805 0.00213486591813808 -0.01321013983196472 -0.03425050189220589 
-0.01602175396884173 -0.002109374254684705 -0.001227512000204984 -0.006334446580270776 0.04489427508756307 0.004259644813707207 
0.02453680043353981 0.0218192393435447 -0.01652000105788678 -0.0252115713127353 0.01085590459902299 -0.003437471876185502 
-0.0007175905280005637 -0.0002173955222444852 0.002434999171620817 -0.002280179697449189 0 -3.050838717574089e-07 
-0.0007231800335020622 -0.0002227230508389847 0.002434880058956994 -0.002269085492647781 0 -3.050838717574089e-07 
-0.0007596495377014612 -0.0002573653640185792 0.002434851216961817 -0.002197533756871087 0 -3.050838717574089e-07 
0.001815900314647572 -0.02203599998777579 0.007758011532708287 -0.01034303279779153 0.0419965059158304 -0.0899239014879965 
0.02702366102212461 0.03488304692359208 -0.01462543893771358 -0.03125817709734302 -0.01193572378145952 0.003832958864751818 
-0.02565297701219991 -0.004809009987828865 -0.008824583445069895 0.02093066958889515 0.009517295093130046 -0.01780429005926729 
0.0342195951399003 -0.03067456681851041 -0.01967908340685874 0.001962718405390313 0.001876472746359088 0.02331397108209088 
-0.03936703376935278 0.005592289134421701 -0.02430273232112415 0.0001093045537305874 -0.04060181763930908 0.09102995195461711 
0.07923385380867423 0.00925360074777366 -0.005478527592764191 -0.01485652670136889 -0.0336345817047514 -0.02065558830138342 
-0.02904214153778908 -0.002834198894403245 -0.008072062096094838 0.005054351344221327 -0.03589609449632804 0.07320747542653595 
-0.02793134297889665 -0.04890680423766511 -0.00454121673713788 0.0006899398542409708 0.0374663178068519 0.04542680159591127 
-0.001553884653976243 -0.0004153362739111526 0.005580355304990515 -0.005054052575173715 -1.110694453421514e-05 -6.529804653525362e-05 
-0.0015663797406291 -0.0004149637755278907 0.005598547591798121 -0.005032939257523295 -1.112244936553345e-05 -7.708895674450104e-05 
-0.001640959279907254 -0.0004466995583303225 0.005630166902833239 -0.004908367882353917 -1.113279697220704e-05 -9.444764467110717e-05 
0.05545208288198238 -0.01264886893296002 0.01201217157290726 -0.02398640126216276 0.006136477002869498 -0.05995146949791936 
0.06210247643803747 0.02087555262169767 -0.0134172828616321 -0.02111385328362842 -0.03619351166817448 0.0194113595095573 
-0.003177634236803215 -0.01150348776086197 -0.006204598401740104 0.0158175503750618 0.02266938453897092 -0.03056949298593024 
0.02034448907637961 -0.02770144181965871 0.00742314191803374 0.01740435310368169 -0.03453922845752087 -0.008622849743952691 
-0.06577530095967102 0.0002344174451579462 0.01755058559942709 -0.03636406576165061 -0.03376353942505037 0.04746534031797101 
0.05649956059526055 -0.007756814039616483 -0.01086104720545007 -0.007302344693643608 -0.03044504166194833 0.01282786169984784 
0.0257302304353555 -0.04808882158666259 -0.001391573381442989 0.03215984522670763 -0.02798995383899812 -0.008034347276361944 
-0.0428395142288291 -0.01790377670203839 7.845486113871905e-05 0.01052033968071538 0.004422630522375836 0.06093770080000674 
-0.003018653009180252 -0.0008194251399031976 0.007943274117646821 -0.005240981958675346 -0.0002117121189181719 -0.0005207079508897879 
-0.003038546364722507 -0.0008062907956932774 0.008033931242092007 -0.005216627079673849 -0.0002115955079950115 -0.0005737020892321851 
-0.003154693037699251 -0.0008078080563815554 0.008160374285688147 -0.005073526904663461 -0.000212732990570874 -0.00063838368344015 
