solver_type L2R_L2LOSS_SVC_DUAL
nr_class 6
label 1 2 3 4 5 6
nr_feature 448
bias -1
w
-0.06432692129125438 -0.01939219034081721 0.04537629954958442 -0.02045108547156756 -0.02779346120160549 5.556096196084131e-05 
-0.02196092892966844 0.0225687865917709 0.01441198934896254 0.003001542403296493 -0.01002284945527079 -0.01906369113175584 
-0.04796557649452151 -0.002180527639787406 0.05082432090532504 -0.04254612211958341 -0.006613540745211003 -0.01619653312602616 
-0.01866336533791785 0.0008693241570204468 0.0327045542521771 -0.02720133909212599 -0.02586691331451739 -0.004137984883908856 
-0.05711291633943437 0.04158175258719389 0.04844513793245937 -0.02241389385754891 -0.00112870035938077 -0.05201834649740129 
-0.03053584034692148 0.03702277334929277 0.00918866107211876 -0.005602385149994285 -0.01565291961311855 0.01079414545254439 
-0.03180674495695637 -0.01621812314701084 0.02059765062281441 -0.02107741902899477 0.0135572749384707 0.01297142859318051 
-0.02416668928881987 -0.01432362452991346 0.0230121898174704 0.003144158929895014 -0.0149959526287029 -0.008314261840613228 
-0.09540293865434017 0.02098548914531714 0.02201671063300868 -0.005165668279231964 -0.02164235360400509 0.03542213635009817 
-0.0309368105224063 0.04366767845483806 -0.02057613498405151 0.01912424520775497 -0.00129351844755389 -0.01082037507947283 
-0.001324980959670309 0.002335705544078013 -0.009259710563984889 0.03914068435821091 -0.01714365288369064 0.01515988798219128 
-0.05998804194206123 -0.0005665175557999066 0.04687607274312675 -0.03485628791796259 -0.04169714186283562 -0.001864107398726108 
-0.02779003038426371 -0.01991800397204791 0.005593959399685797 -0.001486520112911559 0.009516853439989644 -0.006204538771869155 
-0.03727682713429047 0.0376770110726416 -0.01093385647331103 0.02265103432006425 -0.0156773016543695 0.02882039068651884 
-0.01747885041579751 0.0176538417867663 -0.007028285245291886 0.05561903587033779 -0.01948710145867259 0.01008338563019602 
-0.06480573030446192 -0.02194993216112701 0.05960705324566885 -0.03184107229494758 -0.02890381283747541 -0.0205238963780377 
-0.05070625469377318 0.04931281286698758 -0.01221390730501374 -0.008981003832784615 0.0202730330215616 0.01200676448568838 
0.03531647376824111 -0.003533684483610069 -0.02362920330134309 -0.009606871780586909 -0.03242891375289978 0.01353614877034258 
-0.01748349055257743 -0.003399285830298804 -0.009716161698922086 0.02606543809175413 0.02094605607723278 -0.01616476817354464 
-0.076163906202572 0.02458489752493765 0.02467894817217497 0.002778020877365898 -0.03962073318448703 0.03154131942112322 
-0.04247700170565784 -0.003982116642330824 -0.02941674203748548 0.0399297337032037 -0.0441883863558706 0.001496099734561687 
0.007543308980228806 -0.03356410259262416 -0.03583675404494446 0.02916693657834257 -0.02837407552179727 0.05269792303511821 
-0.03386808798373672 -0.004840331213586738 -0.02287115818587533 0.04890261666670179 0.002328345055480859 -0.01001968121188067 
-0.0647696121480774 -0.0004842851205006752 0.008851027567682119 0.002825496237089776 -0.02026861880752473 0.02653437471977633 
0.02159574421842952 0.006037209374034456 -0.02251522504602069 -0.04858206461130359 0.04391623922488921 0.01719797716763298 
-0.02530906632187995 -0.0006657714252763903 -0.03570206216130347 -0.02423044035807156 0.0129472549235985 0.03409294181599545 
-0.0523718420496292 -0.00508847191423652 0.008220418671678106 0.01677130351285442 0.06703716300902682 -0.0998777776079163 
-0.0433046040257438 -0.02568397511655006 -0.007975487592923585 0.02568199147390679 0.01263018461547609 0.04343506266709141 
0.001274957680652917 -0.01859372620490101 0.03065182564218975 0.02008863444608155 -0.07286085140620718 -0.009840693509401852 
-0.02712133578780803 -0.02238505558590393 -0.03743225806731085 -0.01110126526998563 0.05006756720701099 0.04365515242681411 
0.007277147791757164 0.05242965406086667 -0.001454991056519052 0.02718948088977981 -0.03063724559731031 -0.06909141830989494 
-0.04362418264746049 0.01622758198637413 0.001559372895818091 0.009430161484467842 -0.01490001404530129 0.005886582824560701 
0.04609267544155585 -0.004109072180791182 -0.04140250361152312 -0.02246834544602976 0.05343445592142582 -0.01141133398895231 
-0.04327830727875605 0.02766644181383382 -0.02296913827796434 0.01163342914622051 0.003947724805965685 0.01575138812062691 
0.02116905645278534 0.03689243052589346 -0.01372825160181317 0.04256467817305239 0.01128029487548714 -0.1167251516095946 
-0.03079712971854279 -0.04956890779581449 -0.02792669309687146 0.01399300711717956 0.05501003579492661 0.02756315244951554 
-0.03200902583624656 -0.02310726451487108 0.0130782638470625 -0.007869254179559479 -0.05830989936959904 0.03341865581044005 
-0.009156072668387898 -0.005068636519829585 -0.0181569945043224 0.01271073671023127 0.0243842460590929 0.02769722852305568 
-0.01618736124012796 0.008470310557702625 -0.02021539585617592 0.04485771301236422 0.04200922916313291 -0.08989862557785076 
-0.03559266035029517 -0.0014497683245268 -0.04007799067835685 0.01432842743289816 0.016483795852085 0.04325167985387635 
-0.01798334218552493 0.05501562392248241 -0.0481656197551854 0.01603877073331263 0.02063793800195029 -0.01936271794888752 
-0.07119767811949759 0.01488415996483154 -0.01286938642939062 0.01933809954501238 -0.01678803625876038 0.04745217283351595 
-0.009341748005429067 0.02323615968476264 -0.02289180325388928 0.03970285050615857 -0.001535075157795655 -0.01027467510415666 
0.04210458201800963 -0.05766836731874133 -0.03352266347312945 0.00354874465938972 0.01603725101944315 0.04912452907193553 
-0.0363521657069868 0.022189652855729 -0.008613629984461363 0.03441147172311351 -0.05437529807598208 0.001580937754790621 
-0.05479283062356049 -0.007978906526425363 -0.02078215866693301 0.0393787440388334 -0.01499451966693953 0.05276643407306041 
-0.06503531357420833 -0.02329382325896431 0.009804092459335058 0.02900870465743653 0.04993354922632826 -0.04571175530771672 
0.03361735709962049 0.004173892448481817 -0.0302480479924972 -0.01083285224816054 -0.003808219429409928 0.0273869270180811 
-0.0700782728925794 -0.008484912445360249 -0.006613277060657305 0.01737347677756426 0.01426378619308129 0.09086590560708123 
-0.06691393765598545 0.01327925205237219 0.004019740223740284 -0.005937231589770742 -0.003861713987667088 0.02730208870041301 
-0.00368133397488849 -0.01724990592636709 -0.01439840344972209 0.04978726553781734 -0.008781342272977445 -0.01246108772750544 
-0.03066138936324657 0.009247766324778774 -0.02534363714380354 0.0283421795643329 -0.008044386152814343 0.05498019243417171 
-0.02905869188341756 0.03077151478115451 -0.00917684427497424 -0.01492675729656262 -0.003174848307347997 -0.02251382758090766 
-0.07847514125245336 0.01563507839248866 0.0789035661455554 -0.07302554157917086 -0.05327721423908914 -0.01993986363006457 
-0.05565145332049382 0.001822578775331557 -0.001141573606821777 0.02500662182725073 0.01103808807751748 0.01912635200673754 
-0.01091653538785448 0.023094375657368 -0.0292916358082335 -0.02090966180522577 -0.01055676509024016 0.02057734412086241 
-0.03260351292201797 -0.001971586849208615 0.0130889839066127 0.01772415005204682 0.01587278763678511 0.01063188904073506 
-0.04095222510895252 0.04928592241507909 -0.004727664340534344 -0.006518477374208435 0.004545591879475492 -0.01407060880477901 
-0.05612105982745606 0.06757117271518107 0.03012418652042397 -0.03949791312729734 -0.009849539393017213 -0.02504113432382754 
-0.01556916803053925 -0.0009232591790133813 0.04385453835952192 -0.02031761301172521 -0.03002766135859537 -0.01958760980793795 
0.01733888811400776 0.002058963555460593 0.02205053124726732 0.003197061930302144 -0.02157847863327438 -0.0008016902232422378 
-0.05117868066010342 0.04488754092065981 -0.00163850541916916 -0.01439420199739399 -0.02664470213929571 0.04240096448894404 
-0.06198361167120349 0.004631180036205782 0.01889268897177239 -0.01667459357320356 0.0009614184750325149 0.04572272291003164 
-0.04450938354510901 -0.03209536920050535 0.04816819644690528 -0.0282847516546635 -0.006974588059006587 0.008828014005697349 
-0.02191132197672017 -0.02925384826379124 0.01063300650583666 0.01962799173998806 -0.03598881644082668 0.05223036029217143 
-0.05310467111861706 0.05421060381770409 -0.03566157811172909 0.0172782046109484 0.02301171949786974 -0.01042502344800133 
0.0901053285852149 0.03678190191801772 -0.03500755945258407 -0.01383306366029583 -0.05626808652577214 -0.01782944562607618 
-0.07112048190592141 0.0257573207236518 0.0724391777114694 -0.06864484858950347 -0.08091144969544774 0.02784612301406125 
-0.01443182046012951 -0.01535510517471132 0.0006686211559280467 0.02104804027445698 -0.06311950515062828 0.1117933705387074 
-0.04106524558534366 0.0270468320076108 -0.03101870900089192 0.02757105776365081 -0.02844966188610729 0.06734775949591827 
-0.03388037688109017 0.07799367755772629 -0.0322423008169764 0.00365851296025454 0.01273896107234393 0.01843078230440719 
-0.1001853092507953 -0.03921054931155744 0.05983860144107232 -0.04166610912561731 -0.02081048972150617 -0.001619556817539145 
0.02298429768233763 -0.0635243716849193 -0.008805611188904064 0.01305870930187774 -0.04119325652787783 0.04969165982453853 
0.01404233560252925 -0.01943752144951055 -0.03870323406070501 -0.03791528310053047 0.06748173349803112 -0.06315683263929664 
0.03676151485646886 0.01424838650853522 -0.03503232441855919 -0.0102169961094674 0.06590835164865599 -0.07341071300753936 
-0.0911442791215825 -0.02943999345362188 0.04225217250522522 -0.006613118794042649 -0.07090244075626671 0.04895322268093242 
-0.04639853744586854 -0.02873980759499763 -0.0176659358491442 0.03380497266648429 -0.01125315111446556 0.05118042510057314 
0.01786643801821825 0.02817556842859148 -0.04113611093661024 -0.04105494775157661 -0.02981626200559177 0.02727490838915633 
-0.04376390409761877 0.02711013412599521 -0.0321539287472879 0.03464156083873195 0.003709237414313052 0.0528543999227593 
-0.03865832068286542 -0.05890247872457523 0.05560793203800525 0.005540129104373131 -0.06476810274151182 0.01619458622278921 
0.05289413020349508 -0.08582787585478606 -0.01912272507486291 0.01018262750957416 -0.0317680891235196 0.04110994309253035 
-0.02015182074495235 -0.02690586627747735 -0.04325014052304262 -0.05130150973709042 0.06232972307153051 0.03748180766635415 
0.02573891551470765 0.01057225187584225 -0.02739969673681953 -0.01382213204733074 0.003813496785561415 -0.03236897773694917 
-0.02258907117683134 -0.05638930503115091 0.02683467315675716 0.003913604166189902 0.0200467505316003 0.002778114775325313 
-0.05988477912649548 -0.0162442167731059 -0.04852633187300921 0.03112774045171902 0.0692581410689278 -0.01140129373163151 
0.02699726544840199 0.02315001754240546 -0.04501598292588956 -0.03538925963602708 0.02875671692104219 0.01008858521432133 
-0.009283532327799621 0.004024887572548964 -0.03115828566290094 0.001661412615694808 0.02367915879381971 -0.01481713842425066 
0.01293781193211645 -0.05131570411532596 -0.002098059055393711 0.02585095636183362 -0.03487000013636891 0.04128177212995394 
0.0254981562076515 -0.1092033040118976 -0.05364053321100168 0.0431638209886021 0.01258489970061655 0.03184724153432483 
0.01287089602491313 -0.06915921659575217 -0.0350776897240238 0.03974536615100341 0.01444532586505234 0.06747309384648384 
0.01632880142351903 0.00636934792939725 -0.01286442963174568 -0.0001313181564927222 -0.01643179384863678 -0.03270839202391033 
-0.008175024395519278 -0.01722594700881062 -0.01790340004466595 -0.01586596098680742 0.05825464087565605 0.003833671427942253 
-0.02086214864531648 -0.04855001850237651 -0.03252969500204105 0.005194290962756985 0.0892659014577087 -0.06116707957938927 
-0.01881766303656301 -0.05430917894217709 -0.01399742135293493 -0.007270125207505113 0.009620165824311726 0.03328511727799292 
0.01381549251553936 -0.004429828981933959 -0.0001310797342699082 -0.01678799762800753 0.00809939587678798 -0.02050989050119061 
0.01048028531231554 -0.04565029383435272 -0.0336595134776774 -0.0103894070110093 -0.003543558201810488 0.08189679868224235 
0.003522850994702155 -0.0550150528990439 -0.04736074777043284 0.0543467787105014 -0.0414087984192845 0.05064382105460952 
-0.03159249175313925 -0.0339393653562942 0.02425003308646665 0.004625120328058568 -0.03164173272880222 0.02143906315972981 
-0.01300273332291227 0.008088410632106498 -0.03657072901371709 0.01599456448629528 0.03843896871668412 -0.0180954486983237 
-0.0266413902970977 0.07024529719787877 -0.04915134603511103 -0.03780763501010267 -0.01741468398183435 0.04947892584114502 
0.004449275020947553 -0.033259574701531 -0.04473204773170408 0.04500552018661211 0.03632562894130628 0.004404826725360321 
-0.05206029679417969 -0.05570657555661759 0.05579907334623246 -0.04541403460317522 -0.07233720133744666 -0.001199366271549135 
0.02268571196091642 0.01770916184765536 -0.02992757722622426 0.004275210375131656 0.021465699946252 -0.01940179446070436 
-0.004958004884694904 -0.03516240437312546 -0.04751797068774025 -0.004899806166748768 0.07001875647706293 0.02168672539156339 
-0.0196198193886966 -0.009819032459720708 -0.03258273512313319 0.07597796637163109 -0.03626726792582077 0.04215461309056664 
-0.1067125003518377 -0.04533534292935324 0.09142451137907195 -0.05332722769582702 -0.05403771269609016 0.03540263692172654 
-0.01318400579227687 0.04238532608849296 -0.04374682206945811 0.03221087841028306 -0.01082246231326387 0.01770520913786722 
0.03356147857564221 0.007497420250829014 -0.04995808956723882 0.01697715382545019 -0.0347119322398471 0.05876396836435859 
-0.0224159078682871 -0.03524661481973523 -0.04318787348678788 0.06391472008831983 0.005779182578243609 0.03891091608767962 
-0.1214538770197065 0.0191093352070602 0.08095985188287562 -0.08489503142759512 -0.0752342925609266 0.06582806437803058 
0.03128192925427172 0.06044976580652341 -0.01096500133596609 -0.01308823113524618 0.01482283390448762 -0.0614655414235277 
-0.07506869705846161 0.02105432626743751 -0.04751269831576741 0.001534508893157459 0.1124229466138859 -0.04408980878701282 
-0.03109970506466891 0.009265127400252466 0.03248527518334064 -0.01967355137095661 -0.01923820605423279 0.02271642705048812 
-0.01042719078966407 0.02105038976429812 -0.0293094560371095 0.03303948011810405 -0.002442023015780476 -0.02550482185777593 
-0.06362705594187777 0.07829067879538093 -0.01830280296046067 -0.03365514514543923 0.03472689050823428 -0.02491434789020275 
-0.0004309564271310335 0.01462223082868581 -0.0002589727996633512 -0.0003677244020195536 -0.0006447085582441062 -0.03032024914199784 
-0.03353277202073919 0.02131996697024632 -0.01104958296619776 0.03253264427544227 0.002175186452044984 -0.008068052664115923 
-0.02312650767043032 0.02308140881341942 -0.03399275298116983 0.03659286345500894 -0.01604259103011159 0.007910125001634159 
0.0001876679816081821 -0.019537004623689 0.02791008797480218 -0.05920060995065028 0.005053191503535235 0.005965117732589446 
-0.04975314569138436 0.04754287528839233 0.001853725449778179 -0.009406870969714856 0.003499166948860884 0.02795574294643785 
-0.01731497057925234 -0.08874459538404793 0.01904846593227348 0.01386817036356869 0.004184414983032999 0.05770686143209493 
0.05121659621546164 0.01718935058700707 -0.02014217533634773 -0.02786383679775925 -0.03418404581237046 0.01129944774364089 
0.1068422407475285 0.01477012493094435 -0.03781244350826562 -0.005760017895077529 -0.03803155720344154 -0.03242682807912196 
-0.036909685470316 0.04469843187633243 0.01140771628419068 -0.02288970440147849 -0.04622803098410209 -0.03099364336927549 
-0.07502467798204314 -0.01563512008727015 0.0001702730355692936 0.04402080061550016 0.004883925445256005 0.03348471385359979 
-0.0265907808964564 0.01014689198808893 -0.04037243970746249 0.01154726451360473 -0.03612181774925882 0.05864661806252793 
0.03545547200082712 0.07613129664637869 -0.03197623799630148 -0.006549033590607586 0.01462802455347702 -0.07070839111868435 
-0.06286255324420771 0.01001640162113223 0.01482908279408613 -0.02197280013108516 -0.03319664598643098 -0.01325640178665269 
0.06953384442319414 -0.07857020324944905 -0.004244054926229579 0.007953397664431108 0.01457926407974793 -0.03718775790633923 
0.003576819251476594 -0.0005191887322466599 -0.05936223941442559 0.03436867436032632 -0.04729805206693805 0.05324501105165689 
-0.07687006810481012 0.07055543760530525 -0.05157916126450021 -0.02901376391389558 0.08311344312354603 -0.03830875477120909 
-0.01608161971566714 -0.079508609107709 0.04014251082868046 -0.03609171817234446 -0.0118695614854943 -0.07076121980663207 
0.05814595565644545 -0.02597613662016289 -0.01549960364980107 0.01972762230659672 -0.03250832433847904 -0.03653167406595125 
-0.05130938589405896 0.03384997515219339 -0.0484862311435437 0.01251488358790017 -0.007092439940888365 0.06031495769370163 
-0.0002547730261495884 0.02104825520822487 -0.05062089525217599 0.002348310431093963 0.06363887773062386 -0.05190346569986557 
-0.003129734802649659 -0.1020478450223716 0.07597048327310588 -0.03615741810119833 -0.0393547916359454 -0.07972059483402424 
0.00603943908723343 -0.02515077354931967 -0.02239466616939997 -0.01405984051291262 -0.04359676954849642 0.01440994941451386 
-0.03467690547980001 0.0118763253156191 -0.05329172620798799 0.01779208845073935 -0.001792932341752505 0.02879101379213038 
0.01794532579728873 -0.02514638061104789 -0.04007502765575775 -0.05699663665137289 -0.007737668095124706 0.03095713354138286 
-0.02264779056877197 -0.1526004456925779 0.03379304553006685 -0.01973123665892083 -0.06022531227372347 0.0538615029464458 
0.08128161530370406 -0.0294326345172929 -0.04765683235050878 0.0534956063994998 -0.007279837689173507 -0.08271013650252317 
-0.05330967493602315 -0.02920269376760936 -0.03031131682059406 0.0334620318347096 0.07083033729210189 -0.09439127242139674 
-0.02173542061775849 -0.02983890441581032 -0.03040301552215294 -0.02265072035173703 0.1315662188133698 -0.1120374931281376 
0.008068828767730634 -0.1147803792452392 0.07028018834520676 -0.0795644507227378 -0.04324218271415847 -0.0128071998936719 
0.00813907987253059 -0.02638309922783575 -0.03187244785990216 -0.0493356731621909 -0.004588088532169994 0.009802533525085666 
-0.0417215799987455 -0.09959338096844524 0.03333096142306854 -0.02102036466044424 -0.01352324680440607 0.02634787000743663 
0.01310116377986803 -0.02496218471232312 -0.04007325787070307 -0.02937177458130407 0.062691563273194 -0.06071229022255047 
-0.05048218428636519 -0.04970292233598237 -0.01337014192897273 0.01924696905597069 0.02543244426640478 -0.04210158792453936 
0.1063396070258973 0.01461728583492436 -0.03534505114703575 0.02271415422546063 -0.008136352743564442 -0.1334912598016663 
-0.04427132674968295 -0.1138882372894215 0.0250229710796458 -0.0451458487909702 0.009376722330905808 0.01838876715854964 
0.05655263362192833 -0.03960511737591822 -0.0304748156375879 -0.0555169794996337 -0.03633380503675283 -0.008082742640117916 
-0.052992583917152 -0.04992376604822298 -0.01579505107527198 0.004730089623106928 0.001669236653819967 0.01689046057512131 
0.05240316774121695 -0.06221985728684065 -0.01748380312039738 -0.0173429645440708 0.02588738410730011 -0.001768812847717944 
0.01097793369644381 -0.0921811721577904 0.08422150300753407 -0.06279792109308151 -0.04743741569098676 -0.06300584147866346 
-0.04777844250448027 0.02849497760325892 -0.04017470805800645 0.0122686735250911 0.09035296709524401 -0.06465039894760835 
-0.05363276334448428 0.06426399721943345 -0.03552948081570813 0.02439244948657819 0.06844539652851964 -0.09416951481885988 
0.07187612986632315 -0.06102710103003636 -0.03058985404917943 0.05256059871382726 -0.052612312000295 -0.05448145051416373 
-0.05550287307194771 -0.07326820166957751 0.08766220797864605 -0.08363083203294014 -0.04461455110297479 -0.01109778689970968 
-0.03835020873844922 0.005671227850756629 -0.02889096471708556 -0.01775369030392243 -0.0190968421876032 0.0369849795964128 
0.002293692019677521 0.0439023310062659 -0.05187772901512885 0.008689237102836827 -0.05582596261894025 0.02380142890962982 
0.02556718380706991 -0.07376222847171611 -0.02622561294448873 0.03373992330367118 0.02143722579404565 0.02113495194688542 
-0.05793068677438595 -0.03838925901866561 0.06572617423706899 -0.05552001375636937 -0.0282367450992249 -0.08363920563290526 
0.01586443178115077 0.03879713394566316 -0.02229316012294684 -0.005754452016739805 0.01360571664914014 -0.0711125674134461 
-0.05907743568918543 0.01772864370429629 -0.04188690733328543 0.008931444637188984 -0.0009513886881960284 0.07503758383390083 
-0.02785346007697959 -0.005735225071037776 -0.02871771333374921 0.063498917374903 -0.01361242087167887 -0.00425936889873507 
-0.02794967392082501 -0.03149296525712555 0.02784461747603292 -0.009844657685052285 -0.02011900875363683 -0.03800615623551135 
0.06943888281512321 0.05503133772046331 -0.03385200078227229 -0.02318755460062247 0.008924462110885153 -0.0635515560600826 
-0.009333672671618632 -0.01228999595494291 -0.03701882730244704 0.01420580827930677 0.02511992980228094 0.06604469291026308 
-0.03452003168059691 0.04808247002869684 -0.005265578904744305 0.02095323807597189 0.02170939665381412 -0.02630012987185453 
0.006627078326420433 0.03888004572888808 -0.01252861972468864 0.006668765246619892 -2.603334414663442e-05 -0.03084114751477525 
-0.02150705984013604 0.08311300089378038 -0.05203024398764375 -0.01756173757647456 -0.03590660963122085 -0.03499367921816912 
-0.0007580925615755832 0.04268815295031021 0.003092831507893698 0.00139533574137354 -0.019587289767332 -0.01349751700714008 
-0.03967485641655211 0.02578739866188541 -0.004436393770644986 0.04434416427533965 -0.01205893621575101 0.01477612469815614 
-0.002837124276528606 0.01225969383148216 -0.03004534353133297 0.01693934511915338 -0.0307270853277836 0.01216404317939613 
-0.005457654297176959 -0.006691231667720946 -0.01018124809216103 -0.06924929218553642 0.01501310226608468 0.03549654329297639 
-0.04013846785546108 0.03562069116851548 -0.02842503090261253 0.03919923713305065 0.01103059352153509 0.02396609947377094 
-0.05980145701690955 -0.008072259826900342 0.02010473909318699 0.02867164882912985 -0.01517478386442691 -0.01034230337462732 
0.05441276043016688 -0.003539930311197569 -0.02357211048812737 -0.001786299896440862 -0.05776400865635035 0.007508611606462828 
0.1103124200738546 -0.006635063481205059 -0.05872238710223336 -0.01127288982988288 -0.07522232131732798 0.0415657359967072 
0.03453642294302413 0.01966898429290912 -0.0345994595004843 0.02891266581448523 -0.02472147680024134 -0.05372037535459694 
-0.1020608875689475 0.007809854799801442 -0.008672171807733223 0.05136802612060283 0.03078455939608483 -0.03115585662856055 
0.01179928232629831 0.0402390142413194 -0.03831117578272863 -0.02495710620821529 -0.05543348129462083 0.03016665559193208 
0.02138162515393534 0.06503051640815305 -0.03225931986293146 -0.04385729991781267 -0.01026680866957814 0.02295446611526954 
-0.05705448651926652 0.08330771589642198 -0.05331336483194926 0.03711041980246303 -0.0380002352303901 0.04351953673064625 
-0.05879088136393978 0.04622690789591179 0.01370644397124238 -0.05912119002386397 -0.03672956423157744 0.01106353144086321 
-0.02242597558638594 0.01165338690967489 -0.05238173296689594 0.02750774395459367 -0.001124109645219288 0.01432897723800824 
-0.009562851813197906 -0.004823118302055229 -0.06660843714898212 -0.05191864322990269 0.01588726360497221 0.005525162454507702 
-0.04197142803059591 -0.01658872840049844 0.01446795752516193 -0.004463730146727948 -0.04322114133940876 -0.04375366920258633 
-0.04698589413350893 -0.01526661408722107 -0.03565505393108372 0.04477875340981725 0.03236927176065783 -0.06788766742932356 
-0.004675822183107074 0.01487042751269278 -0.03402365302947382 0.03704787200375172 -0.03047775244057411 -0.03446590178942739 
0.001106239004971032 -0.04411794110474492 0.01024093452972953 -0.01653539682303315 -0.02038288199525476 0.01164480146367144 
0.0105627985498281 -0.01927118390792732 0.01628693088726767 -0.04453616859007587 -0.05178068284014321 -0.01943832254686733 
-0.03005669600441819 0.0046505429397837 -0.04895885866414576 0.004450863586404167 0.03509352668667828 -0.03598965943719367 
-0.115287269889428 0.1130981963978905 6.199689074225523e-05 -0.03628211098033075 -0.07289544511115326 -0.09160358726313531 
0.05993504650954011 -0.03961815336135893 -0.07997331171396679 -0.03694921990146548 0.04714351843871716 0.01939116067354158 
-0.0823863791831793 -0.09251249089216537 0.03180795137953284 -0.03522297254063823 0.0014657109852312 0.05533764669644416 
-0.0305211545402493 -0.009741499804918483 -0.03482943708359824 0.03179692899281517 -0.07129126786228163 -0.04177852974237433 
-0.1060913560792361 0.06035219604827945 -0.02343471766687966 0.06929477382603551 -0.05870183331117075 -0.09586425393345988 
0.06291444570127905 -0.03403225820600353 -0.01852299649721964 -0.01132826006560437 -0.02403225975974579 -0.07737604946550006 
-0.1074851093622614 -0.06014246053568941 0.08853887938778612 -0.1030440192000198 0.02997023041858539 -0.05715061267284516 
-0.01738110414633324 0.04569805683593255 -0.02983047398586423 -0.01123365870054385 -0.01571260611422194 -0.0454088225561991 
-0.1268728670036547 -0.01072303531311605 0.07018801032138261 -0.09147475938499022 0.0469441303109626 -0.1222285230909452 
0.04068849742466358 -0.01082574201543733 -0.0405332518385635 -0.008298224125535103 0.02283179795249168 -0.05788303645655919 
-0.1197346947804695 0.008757153697292998 0.0007427427558590089 0.02516904674464887 -0.03653554495798883 -0.0401670565290994 
0.01515565755672622 -0.05791308504866552 -0.08178698577437857 0.07794822397459393 -0.05000990416703493 -0.03151196841809239 
-0.09589247380723977 -0.0457189569764939 0.05801837859954691 -0.07368535619619397 -0.05720751180023373 0.01596363250640234 
0.05036962663209785 -0.04026291416612585 -0.04549194936932701 -0.03192040805739337 -0.03591965328444672 0.03755349847580048 
-0.1329298140985365 0.04932923472435698 0.009760835461379033 -0.03395813797811279 -0.006118223043332847 -0.106122593945076 
-0.0126657503160277 -0.02295541059745249 0.01239371333161889 -0.0493901994696486 0.0274823412425819 -0.05911929504883973 
-0.05453993680272688 -0.04374479411560011 0.05694736462480501 -0.08437461559851185 0.02219826214320848 -0.0617289246327076 
0.03376664583442474 -0.02659467866659241 -0.01655947745069786 -0.03399199465302061 0.01078809225573136 -0.04747089007947523 
-0.05234175855628406 0.01814004001621359 -0.02460606739089901 0.04813021651193784 -0.03708952818452425 -0.02405652257698477 
-0.02159533253116254 0.002817315237411556 -0.08009463767199303 0.08065722581879374 -0.05213490350285369 0.01080573698987149 
-0.092909356349397 -0.03555218201255916 0.02434611684699957 -0.03976290906336302 0.003292162759687943 -0.01165664009620301 
-0.007261193447854589 0.03217942799537558 -0.05560089159013437 -0.05989206759057285 0.01401578604691153 -0.006096464298235281 
-0.02260529295826074 0.05319262626932925 -0.03623313390343699 -0.01085167193205573 -0.05160472231643185 -0.0467403611334035 
-0.02138307949475288 -0.01385338422177642 0.01005535170765209 -0.01869350336508242 -0.007857499922365041 0.004432753993386912 
-0.04925001152155307 0.03997233427036104 -0.02823916563956168 0.009705607667173939 -0.02949406512329473 0.01152950078407997 
0.0238711188537047 0.04059219373460882 -0.0136660751560399 -0.02414598682920242 -0.01975392904247303 -0.04322303403224758 
-0.01492399136450506 0.06065028909048351 -0.02141738758341202 -0.04432717100035821 -0.0544392544189637 -0.01752851735021118 
-0.04266343604694905 -0.009782692570843165 -0.01637253113969275 0.06935979268614659 0.01285710786913998 -0.029717581049102 
0.007895797958124414 0.01512942054802438 -0.02344916802520656 0.01984823880400676 -0.004101890712025452 -0.04174317519668733 
0.01342066232792207 -0.01996513893372259 -0.03678183598802666 -0.02850739893876226 0.01868125504814043 0.05052532964434859 
0.025003905376979 0.03106797652387945 0.003782553233597522 -0.04051819957714901 -0.0306022860387641 0.02465143423052962 
-0.006728024528704457 0.01517114720705903 -0.03548662529767586 0.05328415664955243 -0.02753846212096202 -0.03392201007895821 
0.03141704221310867 -0.009427162122337095 -0.008654080717166878 0.01958686419555515 -0.008210292246821004 -0.009271945861304646 
-0.003266112671084597 0.1004605637192167 -0.03595918288586634 -0.03537369704895811 -0.03276859667825158 -0.03584332422765459 
0.0001747268376193777 0.00155910920402471 0.01695990907698963 -0.008484597115188655 0.003867073814543046 -0.0145608812116625 
-0.08028130928704523 0.006319431410217672 0.01831330161017477 0.01950579398331213 0.01257935427842185 0.02509327284717138 
-0.0004165010150451396 0.007901586445900177 -0.01230289296246157 -0.007405819860513333 -0.01641049090698237 0.01692265266878127 
0.01857802594473479 -0.04571594634379712 -0.01836094487807126 -0.04198025151343317 0.010275714018489 0.06568942867534869 
-0.03217928466532109 0.04749469050224884 -0.01503673192527785 0.005593609366219675 -0.01786634588759476 0.02234075178053279 
0.01955579950373415 0.003607640595213229 -0.01892269522269313 0.02419072712161304 -0.04317427115762535 -0.06308970537006296 
0.009318082531911498 0.03133478617767705 -0.0472730214306501 0.02691556458290433 -0.06842448203360221 -0.006433043770159769 
0.08728316273777532 -0.001206622063141273 -0.03230237372846872 -0.05863926395665198 -0.06069322413228237 0.06063491137094103 
5.692237230750854e-05 0.03572135150193339 -0.03214384671922688 -0.02049990520310276 -0.04067278872513218 0.04384068845500256 
-0.08370504188498823 -0.03207800630802207 0.01965286985643346 0.01748806924125211 -0.03983358512254911 0.02806165192743101 
0.01519017779949451 -0.003962427860192018 -0.01330712872397736 -0.01510515226197561 -0.02590383244607795 -0.01074012207273629 
0.05056326538129325 0.05875417404359048 -0.01227783358247449 -0.05528923629855414 -0.03681775314817392 0.01853886711590723 
-0.004990132270583794 0.0691926892527452 -0.03703125426045498 -0.003940953474679389 -0.04508116287102101 0.004383387748917489 
-0.02604684014495787 0.001013578916159876 -0.03199198029581811 0.006059393753318463 -0.04396406800615638 -0.05111165823770242 
-0.04978542720492853 -0.02423166969619232 0.03933121077733188 0.001475485252717859 -0.03194627262054764 -0.03407051649879694 
-0.01125742823193351 0.02039553817600754 -0.02879796038208514 -0.1069548436241607 -0.001753407449297548 0.0322646632956529 
0.0183454589974725 0.04385449024710028 -0.06455066097532487 0.01473424736424256 -0.03626848526143946 -0.02294874022151135 
-0.03712808994370177 -0.06097327923241443 0.006537062602951801 0.0225600655101342 -0.02557758278075919 -0.004140307182437334 
0.01411267637990089 -0.04278033782328153 -0.002534267027948584 0.004776438524630993 -0.04956726031184103 -0.01748878082502325 
0.0601231282015154 -0.08441841032858491 -0.004334294819146462 -0.06774009499100203 0.03752021744733273 -0.03965790047079085 
-0.010995794354919 0.09011284518000685 -0.05397581369405031 -0.001383888454366571 -0.04042117508780475 -0.01283154856922094 
-0.08058222106420949 0.04534393304079369 -0.01395637677173449 0.03411490010502984 -0.0569983795805183 -0.06594775650802538 
0.00989487320433834 -0.07844966589512443 0.03473763097999748 -0.02233573478164113 -0.05485005895540026 -0.06159631792396102 
-0.01065588804916586 -0.04191745727708791 -0.06759433077043404 -0.05652972699626974 0.06561441638018735 0.006464007818332324 
-0.08143888743977545 0.01109748937394029 0.009637240357852048 -0.04647370375651851 0.001940363824662631 -0.02381470737634167 
-0.07046375365209896 -0.02231132957124937 -0.06709942636405332 0.08635430852653318 0.009935055290010207 0.009060262302839508 
-0.03650944654665529 -0.0865817699372791 0.04589965477771221 -0.006172362166179631 -0.033517959583031 -0.0922915596969216 
0.03645997255872526 -0.0819695147637276 -0.01095502937584356 -0.02898748718796856 0.024233815218874 -0.03369585149799856 
-0.09741117408003221 0.143546988955913 -0.01180238299813399 -0.03477322245190004 -0.009730355495616863 -0.07119401709367976 
-0.05869230816436526 0.06016571083869646 -0.05521952064133605 0.02936011107238662 -0.06290158753614819 -0.05937206251949297 
-0.08075271616511563 0.05592159991995478 0.03728308245763954 -0.04675955735386562 -0.01134535869167696 -0.1001840546642095 
0.05308871025053276 -0.05104517137799174 -0.02724457150395862 -0.03362103513610271 0.02937854529874742 -0.02652506857996172 
-0.07934504044668685 -0.05463858094703127 0.004477714016230089 0.01803834462953941 0.02568472235143996 -0.06575977535202079 
-0.09696781751497896 0.02068293068507805 -0.04296906425752536 0.05135018197808772 -0.00570873970987807 -0.02247732620778241 
-0.08301356020058523 -0.01073393892120665 0.02212228758569258 -0.03053770187678334 0.03543721911898759 -0.0900060315212687 
0.02073326503876449 -0.06205732346440943 -0.04860318432309582 -0.03652196767837311 0.002084864133255861 0.01083253734975844 
-0.02312242221449513 -0.05756991388047874 0.03917491987738735 -0.03940815439196783 -0.05139385144447009 -0.05051017218181143 
-0.002257268912332707 0.01909980439501273 -0.03473271752307339 0.01330651396164179 -0.05238538314507138 -0.05939086278859921 
-0.05677533721407456 0.08789973302767136 -0.02575767784989031 -0.00988616473596129 -0.03927812480700708 -0.003948316198029797 
0.08060779906214911 -0.1020966479128827 -0.01146544106003408 -0.05891255334443912 0.05422572638120617 -0.06126000723998698 
-0.01965904766788105 -0.05380557243339 0.02867283020344558 -0.01334462855007626 -0.03844274924179281 -0.04403270198138539 
-0.06279176603057998 -0.05872082176484739 -0.007158063087214813 0.01119113677434309 0.02257845599820592 -0.003525000542285849 
0.02234301477081812 0.02522043124122542 -0.04340734612111848 -0.002653539013553657 -0.005047306447125054 -0.02287253484911695 
-0.01698412147409929 0.03513387719496759 -0.04653283492630132 -0.08439476662640787 0.02168688353991081 0.0245231010820163 
-0.04018208495678233 0.007640027584518303 0.03264423831724513 -0.01388115704420821 -0.04854964783135975 -0.07606502214732838 
0.01565228705773011 0.0380128231182866 -0.04130022364720955 0.01827415289715247 -0.0728896949164925 -0.03885558744982918 
0.006600124945788242 0.06376470984191197 -0.04602759505174547 0.0289328120674143 -0.05235223954680881 0.004366064025006844 
0.07265959080866674 0.003632515040193704 -0.004121991469179364 -0.08964111469415337 -0.004915490452522269 -0.04002766087447299 
0.005776453398145271 -0.01229551245488275 -0.0198239641165681 -0.01026781336107398 -0.02134680190791837 -0.03484431977313731 
-0.03355856607993118 -0.02964748795517138 -0.01617141445378484 0.02288784271445642 -0.02772101336298842 0.005963472650611703 
-0.000518246503283156 0.03112877258089089 -0.0325931206656782 -0.01735060875619403 -0.02124919598590866 0.03740858180046946 
0.0117114480043062 -0.00531047672481188 -0.01384763458252902 -0.07574033598208739 0.01209238864560873 0.04110419813695524 
-0.04552720997010803 -0.01233113824472049 0.03886746243744618 -0.04635699677381949 -0.03627537025214588 -0.01318862533447126 
-0.03695173181580313 0.05245045127884258 0.01236927953340025 -0.009292895298918802 -0.03918766261445811 -0.02269293038112111 
0.008126882270068128 0.01106928051161572 -0.01009121663725537 0.02743958749363984 -0.01809090328377686 -0.01151669251382624 
-0.0001480645705931833 0.04210444990512988 -0.02286395398317516 -0.01563649101785689 0.001299323059337736 -0.04552024743380191 
-0.006440960218199518 0.01221508481221246 -0.008344310626103251 0.006192610767749212 -0.01021859457818712 0.01706640872213206 
-0.01722817326839803 -0.02159032567471612 -0.003555619803456414 -0.00859390414524804 0.02693099619701891 0.03531042409280543 
-0.05548849835785494 0.02304217230430447 -0.01071714742131334 0.03983634176731845 -0.0008337777839966654 0.01234552780460203 
0.02382161012994402 0.02503626734340721 0.0006305905210224234 -0.05776609795766109 -0.06602991570199214 0.02128122027583743 
0.00145014115557873 0.02101569080018816 0.004606468871862908 -0.01215752839526946 -0.01734543619022135 0.004474689778567851 
0.01921336628523454 -0.05821413894412613 0.0002004379851089621 0.02860421222352874 -0.05071212350661466 -0.005467133974004014 
0.01100096898224803 0.02400857712773451 0.01944144044491858 -0.02613586379004747 -0.09054623694556181 -0.01916456413423427 
0.03525980428944703 0.01057023311342065 -0.02834843037596713 -0.04568206381057244 -0.06309780245213542 0.04344423786536982 
0.07300519724117589 0.03269282397944963 -0.009140805030333222 -0.06965226183331291 -0.07338364145764809 -0.02132020868199497 
0.03424178806826373 -0.04516334125248472 0.02981120041591837 -0.04671556895398841 0.003242042291471889 -0.03640925931553501 
-0.01348485874868513 -0.02320546235223976 0.01968299040150162 0.01513166285555558 -0.08532026680843977 -0.02315387248509692 
-0.03370898611783629 0.1048688852451729 0.007639261354634485 -0.03840342610373904 -0.08496657653070415 0.0323785435720453 
0.08051074310722438 0.0139870510795115 0.0001307896612283644 -0.03853720369188852 -0.03725025460768294 -0.005971746498137 
-0.006870533767460416 -0.09140491106259914 -0.04130807075586616 0.09675475135909797 -0.0254836617662185 -0.06136621064678983 
-0.001451471986644575 -0.03170112247966146 0.06694099307334972 -0.04538602535976331 -0.0594793850994 -0.02102414728396398 
0.01190624803530251 -0.01369607100998952 -0.05187697485713482 -0.03258662464439618 -0.02287580716637815 0.03868669714532993 
0.06330106582276704 0.01528741648845208 -0.04292348839763253 0.005051771485611541 -0.0397601289211634 -0.01340609266795529 
0.04367607910365441 -0.06321805596746659 0.000358954890506632 0.0139000448105359 -0.01433276660368586 -0.01963901504419214 
-0.01021307201548063 -0.06418214110124157 0.01468544125195095 -0.004231696780976674 -0.02607641293360631 -0.01354426167406411 
-0.05863588676453808 -0.01261641137438684 -0.009236205053993217 -0.03211543991833409 -0.002276407413241762 0.03273365083385345 
0.02592137946501558 0.05420334724747701 -0.0254460174779559 -0.02181999132786165 -0.0253040740914075 -0.06323721872212407 
0.01920472181105925 -0.09343323305937212 -0.07935346253094026 0.1532282316207394 -0.007723583912594091 -0.1099667362367708 
0.02079982112307897 -0.06934286961910838 0.007856414731887617 0.0001603335747351407 -0.01967260620224988 -0.07589165272304101 
-0.04164163409647108 -0.0172591394448951 -0.0155493349711296 -0.07749844991786153 0.02771726339103621 0.03811498648376527 
-0.01287664607601946 0.05315485445323476 -0.05909227134233533 -0.01244661031119291 -0.006397949806690047 -0.009666674553294887 
0.02205438713927671 0.0151843156770215 -0.0283455824071055 -0.00908607438357879 -0.0168263246999007 -0.04938968714842823 
-0.02611841055133371 -0.07040491278232154 0.04350787452379136 -0.04162481062328564 0.02032230292103213 -0.03708858797345815 
-0.02156456292188032 -0.0162247658164555 -0.008308393609873156 -0.05039765578446927 0.05622478739965887 -0.01653367449518464 
0.09161291553917779 -0.01452301165520997 -0.02542142831087592 -0.02544349138564885 -0.04619521728566674 0.02181837106311233 
0.04137437385352782 -0.08929259400454415 -0.04692556666368995 0.08230417891448612 -0.04688744780625751 -0.1382950750592683 
-0.006987641457207129 -0.0150740935167792 -0.00645488162373664 0.007073120018418718 -0.005615876680069667 -0.004438612507638321 
-0.0214090803284694 -0.02566969778892267 -0.0134299999278543 -0.06428193158947323 0.07658501893696235 -0.01374062172441431 
0.01520343283038421 -0.05327725914714319 0.02276446456762363 -0.03156571233220971 0.0092187080616243 -0.06590502852840403 
0.03350319918552284 0.03053781624464703 -0.04704926342512294 -0.001176484101751349 -0.01987683004514907 -0.05694531359663312 
0.0188958743960021 0.01036173091262466 -0.02312977937404406 0.001353268510546838 -0.03076941324645353 0.01088323364639777 
-0.02764530347759486 -0.01672057055777061 -0.04011939571685905 -0.07863730135045739 0.03456832974770586 0.04755623072255877 
0.05671220123959135 -0.07070100671139232 -0.01228192479223896 0.03074683705052605 -0.01174426328540631 -0.04144893962591537 
-0.001917728756770478 -0.1114704902636466 0.001003942222793485 0.05682963106804595 -0.03464050485153377 -0.08610446537205076 
-0.007257414817622134 0.02019171725766769 -0.02372244580806969 -0.006884809091807953 -0.009992032346679624 -0.01742369459954032 
-0.02115931195645783 0.007740627692598315 -0.01209378859941207 -0.0325328621349771 0.04398258462216773 -0.02350550316929904 
-0.02736104332597083 -0.03196857292084581 0.007178367827248643 0.004039131006533763 -0.03301229526936795 0.0198877703367065 
0.0454651404930972 -0.03250361171989952 -0.03259805467630175 0.05850987866800485 -0.02328588714479543 -0.04147566705442415 
0.04548342627137705 0.01565293632432398 -0.04237386847099697 -0.02427964418175384 0.002426219103019153 -0.03263989954226135 
-0.02432238920928606 -0.0104319476763395 -0.03861120285991406 -0.04713453350974574 0.0003595811199912643 0.03209872531963811 
0.04238535153280377 -0.03338727116020128 0.05848987375772826 -0.03810160992064078 -0.06142515130318757 -0.0485743530394757 
0.01910144048295604 -0.08343014655412453 0.01332680479134407 0.01432510309323243 -0.03419773376687124 -0.02561916835147178 
0.0348550140970046 0.05950683246028136 -0.01881056765413847 -0.03354773095881971 -0.03832088840454751 -0.04638504146509168 
0.01544421280449197 0.02570315039059437 -0.01115905367592268 -0.04710925532610122 -0.04101090349522565 0.02494714712701 
0.003359962409812187 -0.0159733392157847 0.006681728503238675 -0.0109477258717262 -0.06084082024746737 -0.0119704855050035 
0.0395056844016218 -0.07304237999361628 -0.005241274404772434 -0.0267769649564688 0.06135998783363601 -0.02084053266405383 
0.03489061184692454 0.06080994879624525 -0.001868321538462381 -0.07202275885292742 -0.055112507960498 -0.005384072918016595 
0.05801484513051276 0.02476293242715019 -0.007356793684785658 -0.06424204563060208 -0.03455333318532895 -0.01592763798897661 
0.02166109934651579 0.008658185405045597 0.02789550437817397 -0.01638868198362033 -0.08932863535587454 -0.05709059188921838 
-0.07228260329393114 0.01994026098210201 0.00315244942511514 0.02135299273142544 -0.02734000580600671 0.04391741386059318 
-0.03441103000198351 -0.03070263261504634 0.009586261180892543 0.01526156492539941 -0.04311382765150489 -0.004415015902439781 
-0.01622837689945351 0.03162667889914389 0.0176894662724684 -0.03544855827465324 -0.03253535598794878 -0.06913415817366504 
-0.002224807435447774 0.01507810363810828 0.0004958733333718214 0.00565953020069785 -0.01197489721008877 -0.001670599768565564 
-0.01010260823395215 0.01046809948434801 0.001324871287052501 -0.0002962717087081477 0.02646147070493382 -0.01691043619352519 
0.01930353396639145 -0.06086587564254591 2.249250538538755e-05 0.03911682367868145 -0.0156347145338261 -0.04419635776628054 
-0.01254970677198664 -0.002504552410996566 0.00614428990718931 -0.02936527612009859 0.0008982475815959342 0.03896805514079982 
-0.04077672908000197 0.05637677545525203 0.002917689587017466 -0.03764227855385942 -0.02110929050126448 0.02685709283410899 
-0.0001371931185449853 -0.03111304444266477 -0.01948401675908983 0.04553222755181229 -0.03863031604318391 0.03404802941011949 
0.008745597898789313 -0.0623513491865774 0.034279151910819 -0.008624213077730194 -0.09108696662774068 0.006622007243864798 
0.1243382825543902 -0.03889129629265671 -0.0202743813093579 -0.03146235322458989 -0.05548885398406725 0.004713945477523662 
0.07087002488445973 0.02925438571768841 -0.009468164153741182 -0.05163166775563315 -0.05583840475550338 0.01784641189847983 
0.02924518210306749 -0.03307459000493256 -0.02148478383127906 0.03036889964026324 0.03773765914849468 -0.001585826865970202 
0.0416940693278981 -0.08464884147826791 0.03313648698321213 -0.01164906575444911 -0.06922486642881356 0.0009101390243524903 
-0.04389781359359572 0.07433384438138391 0.002531186115923238 -0.01378566710907794 -0.02750975011775868 0.004914996027879888 
0.03143233991742253 0.06519292973128006 0.01294448033113782 -0.07486095929948197 -0.04813205694957459 -0.003125137939954575 
0.01347725966066293 -0.06190995802624967 -0.03632654243487447 0.08926078086915859 -0.02645213501728976 0.01638383247666149 
0.0710883102809737 -0.08700212176508801 0.01728033707343835 -0.01286238740914264 -0.04209361118370515 0.008016660254981793 
0.06025126841738779 -0.008938281666759456 -0.01189649730055864 -0.0785198175555652 -0.02571560966923865 -0.02154071665199262 
0.07672586919829766 0.04421436591813621 -0.00732598926158474 -0.03689452372207801 -0.0518846788380735 -0.02446766721673744 
0.03163362411137992 -0.007151963574733375 0.0130094112655536 -0.0170420763540421 -0.01677904191279122 -0.01200926198789071 
0.04443175162050286 -0.09069878131580962 0.02348279706242331 -0.01112635131068785 -0.0346572883490933 -0.01797794171437508 
-0.03651699103407972 8.432074917896208e-05 -0.02063607032567228 -0.008994740329281504 0.009509563616164075 0.01265612468227809 
0.02957291454977144 0.04383469793212562 -0.01655652672249636 -0.01009563905921801 -0.04580468352247233 0.03593776025832914 
0.01511951432450253 -0.02251117572553782 -0.0306182918386777 0.06750671003590059 -0.03670122744832433 -0.01169745579785109 
0.009406761635908477 -0.04161874135844401 -0.004005000657656043 0.02437733916447263 -0.02715601133604733 0.006909837068217045 
-0.06894418093100516 -0.04344263468716249 -0.02548348342106908 -0.06007432823433715 0.06006738550330772 0.06606663909989767 
0.09427411894033326 0.02436178437119777 -0.01858176015139272 -0.02015193857579746 -0.04957219037376348 0.005593294482031689 
0.09298169552028725 -0.01585409775280877 0.0359478471050867 0.001340714143245945 -0.05109984909864802 -0.08252686910905377 
0.01527011812756578 -0.02021537846986684 -0.0387222528824181 0.03087787605213455 0.02412855804898106 -0.02079582110326867 
-0.02199743154434743 -0.003895384933010844 -0.02516178838500322 -0.04166186720554418 0.05318945979233325 -0.02304109056773303 
0.08061093566723072 -0.02245035740250059 0.0003079339083225265 -0.02943561669228767 -0.02414142792715394 0.02688174807652643 
0.04110203861486092 -0.05284503515600728 -0.04073122406749462 0.06900105175444969 -0.04017517220974468 0.01328098762930136 
0.02969139107090016 -0.01791286993061262 0.004926458310246843 -0.01708405811010511 -0.0368003166684103 0.04219361624774663 
-0.05965262969345699 -0.03261218685014139 -0.02608089037553159 -0.01190365042785874 0.07902010442570954 0.02826024623660447 
0.02157228590347376 0.01820373184211018 -0.04361884565832957 0.03268877390407132 0.005103431001644464 -0.03271535628251517 
0.1017062724451791 -0.006481492795980974 0.02161102040039033 -0.0005648182345568113 -0.05168270359972844 -0.07711258189811671 
0.0302593140403545 0.01567368785253484 -0.01196599947428435 -0.02509131018815957 -0.01391741471187664 -0.02153518944840171 
-0.02573299779759037 -0.03092425660623616 -0.01410012124808929 -0.04737566934957369 0.03604855245844148 0.03967597672527893 
0.03226766817607116 0.003744389649390173 -0.01208717590842365 0.001168933797120731 -0.02455298587728529 0.02682821163393111 
0.02443470122334252 -0.05601301133731092 -0.03186320837597125 0.07471006005195571 -0.03298595598954099 0.01799986513366456 
0.01764619269274615 0.04639274962088736 -0.01485309857072632 -0.006267162865665738 -0.04154036016966699 0.02787347220687068 
0.009102172284492005 -0.01290687735965344 0.003087859947216016 -0.02199444471388497 -0.0005570447077498143 0.01194945278959132 
0.03487923382971294 -0.0744721955567786 0.002823759508141946 -0.01079437293931055 0.01022618561948176 -0.03433514261655348 
0.05201026836028776 0.002789411990314005 0.01534233430869801 -0.02684871984750294 0.01016116944135063 -0.05618868605351681 
0.09408661762394328 0.0302138415381959 -0.01002650802467655 -0.02399177037489608 -0.03283564765328183 -0.03251843153562369 
-0.01170658824725743 -0.04434403318894418 -0.01805844790756221 -0.04543519809599696 0.008034049526720769 0.05340128262899702 
0.05388091790079653 -0.05985589376069735 -0.01512430334896406 0.01685218150163307 -0.009810857948884092 0.05720225163139275 
0.02175830070308553 -0.07570416097321939 -0.006443375343090688 0.02837006031824612 -0.03880596012226843 0.06643742659384623 
0.05746629819113613 0.08062706159799636 -0.006670405105398485 -0.07324080532965635 -0.06469920672266918 -0.009992437764577681 
-0.006960496474643133 0.04738829642408961 -0.02594796435294541 -0.01487158370391215 -0.03618092020485088 0.01739014376602855 
0.04628400393193167 -0.08600494948660672 0.04471354702327339 -0.02323043871252093 -0.03956701250534971 -0.03152778997008645 
0.06616381884457637 -0.04549213870736707 -0.002801068663859924 -0.006296988348206707 0.05901816057171579 -0.04289631794644996 
0.07592314570837329 0.03099397989764445 -0.01313181279612618 -0.02823396164513834 -0.05388007483970084 0.01359747228322037 
0.03518486175348507 0.01732673011671645 -0.0248567930492587 -0.03047067633773066 -0.008424497492195964 -0.01062627338130691 
0.03793390121202912 -0.07075659946546213 0.04052378708372258 -0.002810127608992082 -0.05259390284097046 -0.01691543297262483 
-0.04952857083856183 0.01373066069040974 0.01798549357235273 0.02500554600370864 -0.02377725362952327 -0.01766286467320944 
-0.0425571137829602 -0.03747039419479998 0.02316520617268878 -0.001428090804890494 -0.001177836908603328 -0.004835071298272725 
0.000576120604489548 -0.05163582496428633 0.01028398229341302 -0.01619364236826378 0.006642888213837837 -0.03771495202177783 
0.01129767328525362 -0.02731433269428326 -0.004652901130684368 0.006564681287023828 -0.01923437646721673 0.01241642705461853 
-0.07920011702320709 0.03502911418000921 0.03854167339531382 -0.002690472436293724 -0.04232372400242913 -0.003317684779389764 
0.0002979576769097451 -0.02811469974952372 0.01779263007815454 0.001361285955072927 -0.02387757015430521 -0.03617602423844824 
0.0192045583706396 -0.04614126885391855 0.001741409774155591 -0.00434820028216403 0.006097642566868731 -0.0005031395391844332 
0.02581157425956382 -0.01316514688029081 -0.003636298988618543 0.003096534804809774 -0.003400328403098213 0.007836102999861387 
0.05525022424219678 -0.05143050327691533 0.0006015806497887247 -0.01579086053611295 0.01448796069842653 -0.04378237050620065 
-0.007815432855759485 -0.02560606890335068 0.008490703737817275 0.009480733139054386 -0.01487353075015333 -0.03991008968560351 
0.02459181956870007 -0.02649723541980081 0.005743301761914218 -0.002510526708512753 -0.01216765634092724 -0.01562038660610316 
0.03047979472906184 -0.001714887976569522 -0.01370398892124101 -0.01375632303950308 -0.03640689534764477 0.001282922413314065 
-0.0483398035602851 0.0007207969258247078 0.009095507270586351 -0.02755060087662209 -0.03489046426196313 0.02162175369706756 
0.004098709871079666 -0.03449998091302367 0.02817217546144639 -0.001746771988544224 -0.02114774359363146 -0.01838374012377671 
-0.03172641877572228 0.02750599832183607 -0.0009412951021939546 0.007595511675831481 -0.01343857136368227 0.01561004951600502 
-0.005023055077481253 0.04280479808100104 -0.01113949952039004 -0.01826014350463933 -0.01697152608157369 0.04707483562682543 
0.01978223189793217 -0.04071842875681987 -0.01338371366523657 0.01349308065588985 0.03139840535242888 -0.04832493313702942 
-0.02359862137213881 -0.02750069172131163 -0.01059603097787547 0.015984342157224 0.003701780740422071 0.06131206282193297 
-0.03670154721169874 -0.00646259624367926 0.006420101774395755 0.01019340386454236 -0.002200903444583982 0.003922583369809244 
0.07442011177093269 -0.01504913159416999 -0.01808467806061722 -0.0246250492173058 -0.01792733994376425 -0.006542154528982377 
-0.00924027279069177 -0.005758375853317203 -0.01124040688361086 0.01395497898637754 -0.06872274747867063 0.04566932696600728 
0.00730541535464219 0.01329705858129773 -0.01778970739246069 -0.007469916656298546 -0.01243056965443355 0.001339099428395005 
-0.003119521031553555 -0.03945790647252671 -0.01734375653106803 0.0204394641086048 0.01753457774049126 -0.001667771207523357 
0.01445952084587419 0.0337133506871559 -0.02137782612106711 -0.01424681629287784 -0.003650526011869969 0.01252280771385751 
-0.0007204252275220478 -0.06248320685491015 0.03492036858723906 -0.01579117025092971 0.03666211368840634 -0.03532996266265938 
0.0291465037870919 -0.02664565232973988 -0.01522627629604974 -0.006896793026211364 0.01641536404715111 0.03029403579985511 
0.004724954457200599 0.006791618493116477 -0.02231904712855387 0.008329681797649121 -0.02702024297054833 0.0656482425297016 
0.0779587704145646 0.00530644118939937 -0.01967173843088656 0.004702684539511476 -0.02624970878892004 -0.001259619422078111 
0.03309028664831136 -0.02383981436602561 -0.03199791605226361 -0.03045452105879531 -0.02655016442273542 0.03829794244654302 
0.004473155639849991 -0.01814272885100067 -0.01870839068322331 0.01305939236810178 0.01657796275673061 -0.00879891186365786 
-0.03820199916659597 -0.003739909297412634 -0.01466324691872044 0.02410740820465144 0.04147272504235188 -0.007430566619717655 
-0.003356480455355851 0.05242216968957373 -0.02165623390054463 -0.007301284897075239 -0.01889515357753923 0.03716704110915739 
0.01450787573419632 0.01590820629249299 0.03529218088084663 -0.03118514315646515 -0.02782652087527876 -0.0577338116580291 
-0.03631543668187367 0.01506510310214024 -0.01366279020259615 0.006069033975936214 0.01057379639003827 0.04140615459657972 
-0.04369053890244141 0.03365269688189723 -0.009748136557225498 0.01432721159418303 0.02550999154698643 0.008129491058751489 
0.02114845148438292 0.0008362136133484478 -0.009367111212790571 -0.008348447323086997 -0.00514350634509991 0.00385323886241576 
-0.02241760316423554 -0.0196188921526093 -0.02810740326687364 -0.005204337174732044 -0.03593606115048428 0.09924212933323229 
0.08856105668736089 -0.01713129078554522 -0.01275888608697862 0.002850427016742049 -0.01241671893161106 -0.03141257838430436 
-0.01315378936580055 0.0008541752407987788 -0.005964306902664771 -0.004560991469956624 0.04759338912525206 0.009015840103511573 
0.02587101448212369 0.02306516275117931 -0.0187088545072086 -0.02430681983364115 0.01133789387423299 -0.001172093808485416 
-0.005186333916909572 -0.02673127087945644 0.01383290338994239 -0.01257281899652907 0.03680968508245586 -0.1016384801684759 
0.030633551473433 0.03714536476709343 -0.0175610462479343 -0.03020944516485016 -0.01050656645469447 0.009187472316726508 
-0.02230022122716779 -0.002591630534460547 -0.01130251828010844 0.02149622778699954 0.01105101151308929 -0.01538787344138096 
0.03267158918847266 -0.03134879288365271 -0.02011323015932766 0.001929481676339519 -0.000116406597298078 0.02006446890083719 
-0.0435681623171142 0.004024542533137525 -0.02070304431218805 -0.001004538230160362 -0.04135906503685784 0.08612724333469882 
0.08036675694865868 0.009558869346059892 -0.006200655844107975 -0.0141377245855734 -0.03363141870604142 -0.02091573722134787 
-0.02735439767227998 -0.0006958485732956413 -0.01046441764067145 0.006133478849862224 -0.03507781494299352 0.07418477785049196 
-0.02878305425965753 -0.04896165763807212 -0.004508390206223551 0.0008835626382715057 0.03678597742709145 0.04432069368786715 
0.05429217507432707 -0.01333512435011368 0.01607789063447542 -0.02510760899312604 0.005240609094795635 -0.06146443645398077 
0.06394193748583081 0.02228520257461196 -0.01635264671816123 -0.0205204825114252 -0.03452191901695193 0.02241361399081798 
0.00104863365589875 -0.008382069100116029 -0.009976123319897249 0.01689685006676942 0.02590276831451944 -0.02403199052636973 
0.01528332779029268 -0.03132663241624661 0.01164749549555945 0.0154390472982898 -0.03615618322685092 -0.01511355248797753 
-0.07539010348922862 -0.005892665080291237 0.02759273414675848 -0.03976591737175505 -0.03860861632969283 0.03451136344205174 
0.05451470574813045 -0.009035070639590309 -0.01180759330801212 -0.007324820715096646 -0.0318914263971354 0.01035092613528804 
0.02959595724833514 -0.04646793601466814 -0.003663734784133088 0.03306328267314871 -0.02751178606335515 -0.006379989007116595 
-0.0406153572100558 -0.01529356960161784 -0.002182324072697517 0.01166222747899525 0.005620629364472367 0.06705929249681006 
